, 0.18378 -0.12123 -0.11987 0.015227 -0.19121 -0.066074 -2.9876 0.80795 0.067338 -0.13184 -0.5274 0.44521 0.12982 -0.21823 -0.4508 -0.22478 -0.30766 -0.11137 -0.162 -0.21294 -0.46022 -0.086593 -0.24902 0.46729 -0.6023 -0.44972 0.43946 0.014738 0.27498 -0.078421 0.36009 0.12172 0.4298 -0.055345 0.4495 -0.74444 -0.26702 0.16431 -0.19335 0.13468 0.2887 0.23924 -0.23579 -0.28972 0.20149 0.048135 -0.18322 -0.15492 -0.19255 0.40271 0.16051 0.17721 0.32557 0.011625 -0.42572 0.34205 -0.45865 -0.2486 0.034128 0.03306 -0.057065 0.18136 -0.43638 0.0005709 -0.11935 -0.2195 0.16429 -0.18119 -0.19145 -0.081672 -0.2962 0.25803 0.073848 0.54213 -0.15405 -0.49256 0.091719 0.13329 -0.05253 -0.20518 0.34576 -1.0449 0.072779 -0.0003453 -0.16926 0.051019 -0.14753 0.23848 -0.40749 -0.58278 -0.48695 0.25863 -0.20531 -0.4775 0.40645 -0.038512 -2.403 -0.12421 0.63149 0.089419 0.08557 -0.20757 -0.1617 -0.29506 -0.13948 0.14202 -0.30138 -0.15806 0.52984 0.24229 0.075169 0.13792 0.90416 -0.23647 0.027788 0.099915 0.45422 0.60176 0.25044 0.29142 0.040712 -0.08121 -0.43786 -0.3015 -0.17991 -0.52149 0.029446 -0.23051 0.073955 0.34751 0.07806 0.19801 -0.32246 -0.13827 0.10076 0.56601 0.31925 0.09426 -0.045898 0.78329 0.19997 0.1619 0.41579 -0.31467 -0.036655 -0.11687 -0.17942 0.16246 0.42221 0.19588 -0.025058 -0.018717 -0.17965 0.35635 0.25853 0.13139 0.026784 0.017271 -0.14781 0.30598 -0.033228 0.15521 -0.50574 0.1295 0.14602 -0.35552 -0.43194 -0.1029 0.04736 -0.57903 -0.42488 0.67163 -0.11182 0.29306 -0.0033312 0.13091 -0.086655 0.22618 0.29357 -0.3088 -0.42705 0.3268 0.39254 0.17474 -0.19659 0.35665 0.38025 0.24257 -0.17021 0.097295 0.45248 -0.40589 0.27886 -0.33315 0.37076 0.16742 -0.28582 -0.051604 -0.090346 0.095385 0.26395 -0.30008 -0.63244 0.076666 0.14102 0.88613 -0.053817 0.26223 -0.016005 -0.040608 0.082136 -0.08159 -0.068912 -0.62239 -0.014757 -0.033402 0.25847 -0.28878 -0.27143 -0.23709 -0.11285 0.24828 0.14512 0.3373 -4.1005 -0.075261 0.32638 0.21444 0.37972 0.029263 0.24594 0.42935 0.68689 -0.58112 0.22939 -0.38889 0.41684 0.066217 0.47901 0.27427 0.41645 -0.35492 -0.14413 -0.010046 -0.42024 -0.19382 0.36156 -0.13364 -0.29853 0.47537 -0.26989 -0.083662 -0.0741 0.21815 -0.30678 -0.83499 -0.11287 -0.32612 0.12375 0.35341 -0.32607 0.32853 0.060266 -0.21991 0.35671 0.29546 -0.48159 -0.22347 0.31036 0.22132 -0.20994 -0.085675 -0.26173 -0.10764 -0.14802 0.17573 -0.17804 -0.21765 0.3073 -0.4459 0.03913 -0.22065 0.2214 0.32727 -0.40378 0.33021 -0.13942 -0.41003 -0.17526 0.21852 0.13615 0.10999 -0.33474 -0.046109 0.1078 -0.035657 -0.012921 -0.039038 0.18274 0.14654
the -0.20838 -0.14932 -0.017528 -0.028432 -0.060104 -0.2646 -4.1445 0.62932 0.33672 -0.43395 0.39899 -0.19573 0.13977 -0.021519 0.37823 -0.5525 -0.1123 -0.0081443 0.29059 0.066817 0.10465 -0.086943 -0.048983 -0.26757 -0.47038 0.27469 0.069245 -0.027967 -0.19719 0.016749 -0.29681 0.17838 0.058374 -0.24806 0.085846 0.35043 0.049157 -0.16431 0.50012 -0.18053 0.31422 0.10671 0.031852 0.074278 0.27956 0.080317 0.05478 -0.30349 -0.43215 0.32417 0.40856 0.36192 0.13445 -0.12933 0.11331 -0.15755 0.35755 0.30463 -0.098488 0.012032 0.45581 0.37101 0.1427 -0.43329 -0.10869 0.49849 0.54455 0.44352 0.31804 0.022171 -0.41186 -0.025428 0.21062 -0.3583 0.22028 -0.55391 -0.035364 -0.053998 0.32172 -0.51928 -0.27427 -0.45214 -0.329 -0.48519 0.52966 0.0041434 -0.1718 -0.18748 -0.24365 -0.060786 0.050733 -0.21335 0.27627 0.42745 0.011461 -0.29794 -3.2881 -0.39842 0.16796 -0.12894 0.0020005 0.45613 0.15215 0.15364 -0.21281 -0.25339 0.28955 -0.57817 -0.6074 0.10301 0.28324 0.21506 -0.042325 0.40479 -0.20579 -0.011674 0.26092 -0.15402 0.057961 -0.058576 -0.41974 0.52015 0.15074 -0.088039 -0.14446 -0.17074 0.083752 -0.25708 0.16362 0.14795 -0.059821 0.034473 -0.14534 -0.17965 0.076303 0.33354 -0.14434 0.17618 0.45345 0.15262 -0.0751 0.27592 0.081456 0.30738 -0.072327 0.10706 -0.35581 -0.02669 0.61236 0.70829 -0.28945 -0.024637 0.01189 -0.091899 -0.27272 -0.10157 0.44713 0.092418 -0.10711 -0.015552 0.12822 0.22256 -0.069059 0.29927 -0.10913 0.1618 0.14796 0.1136 0.26634 0.010832 0.071946 0.16973 -0.22769 0.322 -0.083748 0.65269 0.068244 -0.32687 0.31782 0.17035 0.79803 -0.19194 -0.16485 -0.32437 0.079105 -0.35672 -0.26786 -0.24786 0.70512 -0.11909 0.16256 -0.43259 -0.050078 0.050232 -0.1145 -0.041885 0.47866 0.012767 0.19642 0.26196 -0.29425 0.089615 -0.17736 -0.22448 0.22624 0.16749 0.05577 0.14399 0.2158 0.33819 0.23459 0.15826 -0.2856 0.24199 0.11018 0.38164 -0.2984 -0.20169 0.2695 0.11186 -0.21006 -0.04207 0.016507 -0.22866 -3.3882 0.29204 -0.088358 -0.014966 -0.25225 -0.11503 0.036337 -0.14817 0.04622 -0.073466 -0.13866 0.23612 0.033882 0.29495 -0.61234 0.20289 -0.42091 0.37767 0.03626 0.21708 0.12561 -0.21682 -0.0037997 -0.17791 -0.26431 0.31678 -0.051229 0.049269 -0.12622 -0.10117 0.017246 -0.02195 -0.1982 0.03725 -0.16791 -0.055459 0.5767 0.059123 0.22931 0.064201 0.27424 -0.37129 -0.091375 -0.071342 -0.037218 -0.012668 -0.017976 -0.42622 -0.10095 0.044992 -0.090225 0.22915 0.1861 0.36366 -0.20676 -0.33037 0.47302 0.2338 0.079306 0.21083 0.21013 0.15275 0.080873 -0.33013 -0.17181 -0.07017 -0.041244 -0.46182 0.027903 0.54657 -0.25894 0.39515 0.26144 -0.54066 0.21199 -0.0094357
. 0.10876 0.0022438 0.22213 -0.12102 -0.048959 0.018135 -3.8174 -0.032631 -0.62594 -0.51898 -0.35893 0.78871 -0.29777 0.005186 -0.41814 0.24691 -0.13584 -0.19046 -0.29987 -0.63696 -0.065406 0.11436 -0.021438 0.17501 -0.19494 -0.089508 -0.10631 -0.24107 0.12856 0.33577 0.051281 0.13849 0.24562 -0.40412 -0.16927 0.22167 0.24016 -0.032447 0.11127 -0.01178 -0.19622 -0.59113 -0.13265 -0.21192 0.17192 -0.18961 -0.34916 -0.098324 -0.42555 0.026523 -0.41361 -0.21346 -0.19775 0.0093893 -0.25976 -0.48221 -0.10778 0.029514 0.29254 -0.14844 0.73861 -0.10725 0.13759 0.54075 -0.1347 0.12982 0.036717 0.32338 -0.077501 -0.04642 -0.23924 -0.25071 -0.059339 -0.40909 0.022929 -0.36144 0.016797 -0.0070788 -0.15447 -0.36141 -0.22258 -0.44854 0.070369 0.19246 0.38875 0.10956 0.20907 0.60839 0.060436 0.042908 -0.13592 -0.1407 -0.56612 0.048278 -0.23504 -0.27897 -2.2884 0.11096 -0.19271 0.14455 0.28472 -0.20574 -0.036538 0.35877 0.16868 -0.063331 -0.18492 0.28085 0.85193 0.28055 -0.20985 -0.19593 0.81482 0.25215 -0.62068 0.41435 0.10557 -0.3093 -0.096312 0.13028 0.15084 -0.50123 0.15623 -0.20892 -0.28956 0.012043 -0.097626 -0.26242 0.096474 0.25771 -0.10903 -0.10082 -0.14434 -0.32984 -0.046379 0.031062 0.014825 0.091645 -0.067844 0.046894 0.15272 -0.088693 0.19054 0.67088 -0.059463 -0.21187 0.16674 -0.23207 0.33023 -0.23966 -0.48016 -0.18978 0.51637 0.13811 -0.26918 0.089576 -0.54118 0.53692 -0.18972 0.046074 -0.27932 -0.10529 -0.73563 -0.087796 0.39539 -0.44176 -0.62707 -0.21666 0.36325 -0.38248 0.49247 0.066497 0.016996 0.17387 -0.30563 -0.036247 0.094577 -0.40638 -0.11703 -0.044589 -0.41872 0.55478 -0.050797 -0.51106 0.081849 -0.23704 0.12522 0.56392 0.22459 0.5077 0.12011 -0.18115 -0.11125 -0.060846 -0.582 -0.32602 -0.061308 0.32683 0.099323 0.2721 0.32524 0.021033 -0.047185 0.51143 0.3579 0.35536 0.005939 0.49009 0.056522 -0.1218 0.021951 -0.21458 0.41146 -0.086966 0.42673 -0.18731 -0.29233 -0.019558 -0.5649 -0.25493 0.12111 0.10869 -0.16795 -0.010423 -3.6964 -0.22244 -0.16492 0.12317 -0.010062 -0.53517 0.30557 0.03702 0.4443 0.015176 -0.26279 -0.065307 0.33099 0.35048 -0.3176 -0.2243 -0.3004 0.24022 -0.18502 -0.66931 0.14986 -0.15948 0.141 -0.047219 -0.083048 0.16829 0.044241 0.35777 -0.22207 0.067496 0.24111 -0.20181 0.64122 0.05656 -0.32635 0.28111 -0.15638 -0.045039 0.14662 -0.41362 0.29122 0.48036 -0.65526 0.041017 -0.40086 0.11574 0.02623 0.028116 -0.4088 0.17148 -0.50448 0.10087 0.3922 0.14905 0.20962 -0.11509 0.32092 -0.32045 0.035085 0.67025 -0.61808 -0.13169 -0.032892 0.21476 -0.0033323 0.52406 0.063131 -0.2123 -0.30088 -0.45161 0.2648 0.075971 -0.40688 -0.29696 0.15939 -0.14902
and -0.09611 -0.25788 -0.3586 -0.32887 0.5795 -0.51774 -4.1582 -0.11371 -0.10848 -0.48885 0.19931 -0.1054 -0.43825 -0.34483 -0.45052 -0.34864 -0.458 -0.81554 0.22006 0.20254 -0.10954 0.1252 -0.54117 0.34731 -0.099998 -0.018998 -0.14277 -0.42481 -0.0094091 -0.43155 -0.038769 0.12147 0.51988 -0.4984 -0.24625 -0.52067 -0.05821 -0.30712 0.25512 0.048033 -0.22313 -0.0069182 0.039824 -0.50088 -0.11972 -0.079045 0.01688 -0.34052 -0.2066 0.081265 0.12352 -0.49007 0.34946 -0.29241 0.14893 0.1366 -0.09783 -0.068472 -0.010913 0.0028454 -0.12656 0.3427 0.1058 -0.46151 0.070133 -0.061343 -0.015021 0.17659 0.17941 -0.51377 -0.31381 -0.1372 0.045186 -0.082259 0.21515 -0.21955 0.10313 -0.20704 0.14041 -0.35151 0.62316 -0.5799 -0.056115 -0.0021746 0.18958 0.22398 0.12246 -0.26178 0.010779 -0.31268 -0.21447 0.35344 -0.026041 0.018232 0.35751 -0.070188 -3.0872 -0.13131 0.017387 0.23244 -0.060585 0.20679 0.57579 0.36338 -0.41574 0.030607 0.23619 -0.11284 -0.36043 0.21635 -0.02752 0.17502 0.43491 -0.088247 0.40754 -0.48551 0.13539 -0.090759 0.14423 0.34118 -0.3794 -0.27344 0.02593 0.073217 -0.10176 0.16551 -0.23278 -0.18563 0.021372 -0.093111 0.15179 0.15057 0.55148 -0.20088 -0.079495 0.22599 0.26243 0.25123 0.60266 -0.20423 0.36972 -0.10694 0.0072887 0.018359 0.22368 -0.14065 0.1112 0.087667 0.8466 0.31545 -0.15348 0.020311 0.020878 0.38651 0.047422 -0.24854 -0.19053 0.49173 0.038161 -0.021038 0.14496 0.11591 -0.15105 -0.18942 0.18703 0.026752 0.0046523 0.39814 -0.018617 -0.73177 0.072832 0.41535 -0.48818 0.00304 -0.22729 0.88248 -0.61612 -0.18901 -0.33491 -0.28672 -0.013143 -0.37545 -0.18443 -0.55218 0.70186 -0.073107 0.6393 0.13098 0.071586 0.0053641 0.24636 -0.70744 -0.45036 0.00060187 -0.39093 -0.02716 0.25589 -0.17313 0.29883 -0.00090947 0.08314 -0.4099 -0.013024 -0.049533 0.3041 0.64302 0.23045 -0.18757 0.037584 -0.26082 0.1753 -0.062815 -0.22569 -0.1213 0.15524 -0.14407 0.088732 0.34674 -0.43494 0.38688 -0.15733 -0.12721 0.30194 0.32034 -3.3264 0.069427 0.13848 -0.058216 -0.027088 0.11028 0.3404 0.18654 0.11522 -0.40381 0.044776 0.15535 0.16247 -0.24051 0.04729 0.03498 -0.075942 0.15598 -0.059873 0.0046743 0.15595 -0.27613 0.13562 0.13485 -0.073724 0.31421 0.031234 -0.23516 0.31005 -0.10375 -0.30783 -0.55327 0.28304 0.081429 0.37778 0.15725 0.011757 0.043006 -0.43423 -0.22718 -0.043292 -0.63617 -0.8939 -0.17406 0.41111 -0.14404 -0.1678 -0.44438 -0.73051 0.10957 0.13122 0.085623 0.12504 -0.40337 0.041765 -0.27574 0.062513 0.051093 0.39926 0.11149 -0.056462 0.26809 -0.39569 0.31033 -0.04975 -0.33139 0.47781 -0.021213 -0.21236 0.42374 0.14083 0.067498 -0.12675 -0.3703 -0.092774 0.39058
to -0.24837 -0.45461 0.039227 -0.28422 -0.031852 0.26355 -4.6323 0.01389 -0.53928 -0.084454 0.061556 -0.41552 -0.14599 -0.59321 -0.028738 -0.034991 -0.29698 -0.07985 0.27312 0.2204 -0.089859 0.00088265 -0.41991 -0.12536 -0.054629 0.03055 0.1934 -0.063945 0.027405 0.051193 -0.38656 -0.11085 0.17259 0.29804 -0.35183 0.1315 -0.54006 -0.76677 -0.00055168 0.13076 0.025101 0.62106 -0.24797 -0.3979 -0.36116 -0.51967 0.030138 -0.052436 0.069281 0.035252 -0.21402 0.24836 -0.15693 0.12829 0.35425 -0.1608 -0.005072 -0.30656 -0.29514 -0.13554 -0.14385 -0.40552 0.57233 -0.2767 0.30519 0.15586 0.016086 -0.22009 0.48589 -0.41384 0.20546 0.40491 0.041558 -0.13542 0.22544 -0.23629 0.15193 -0.010859 -0.082662 -0.55484 -0.061584 -0.11112 -0.11982 -0.37064 0.16501 0.44063 -0.33883 -0.57676 0.50847 -0.035707 -0.059233 0.030748 -0.27689 -0.070433 0.027786 -0.59336 -2.822 -0.10052 0.67168 -0.17046 -0.25902 0.27938 0.39992 0.03748 -0.26409 -0.26378 0.20645 0.17564 -0.080807 -0.38376 0.26602 0.36214 -0.095112 0.35199 -0.86994 -0.15747 -0.2255 -0.064948 -0.24845 0.15038 -0.32951 -0.22285 -0.025509 -0.29725 -0.37715 0.089296 -0.034399 0.3364 0.35534 0.38253 0.17646 0.13305 -0.32743 -0.47115 0.24673 -0.15964 0.18212 -0.41241 0.098565 0.38118 0.33043 0.051987 -0.21824 0.22214 -0.05945 -0.063743 0.43723 0.11068 0.47444 0.56891 0.31123 -0.20272 0.080078 -0.43905 -0.12246 -0.025057 -0.057162 0.1425 0.094468 0.12991 0.10444 -0.39447 -0.29337 -0.20466 0.20815 -0.1601 -0.14665 0.54511 0.2974 -0.22959 -0.1705 -0.062371 -0.50399 -0.38 -0.39528 0.57552 -0.46892 -0.43308 0.15018 -0.041179 0.62157 0.019874 -0.11969 -0.25611 0.26602 -0.37383 0.12936 -0.050006 -0.11554 -0.17163 -0.4243 0.19844 0.50611 -0.11093 -0.13939 -0.59377 0.67338 0.38497 0.62604 -0.20128 0.30058 -0.13946 -0.16186 0.12168 -0.01841 0.61356 -0.19887 0.1925 0.0084372 -0.50757 0.35858 -0.49729 -0.44725 0.021423 -0.20769 0.083729 0.22032 0.14404 0.001259 -0.44309 -0.17242 -0.353 -0.29477 0.32898 -3.191 0.3891 0.35654 0.052134 0.20576 -0.088649 0.16398 0.11203 0.2859 0.2894 -0.44349 0.91036 -0.30902 -0.13985 -0.39499 -0.027299 -0.15201 0.084418 -0.37196 0.049827 0.14128 -0.15126 -0.16107 0.0040226 0.16799 -0.25429 -0.15074 -0.57409 -0.15611 0.068407 0.24832 0.16828 0.072764 -0.086728 0.0021982 0.13593 0.70224 -0.45976 -0.24506 -0.33874 -0.10952 0.24698 -0.55919 -0.38866 -0.13372 0.091943 -0.10543 -0.31319 -0.29952 -0.20611 0.17976 0.458 -0.072402 0.16118 -0.41649 -0.30103 0.23234 -0.050139 0.10026 0.38974 -0.061342 0.26626 -0.15671 0.075136 -0.42926 -0.12025 0.082736 -0.62469 0.044267 0.60673 -0.12458 -0.15443 -0.16339 0.053097 0.15458 -0.38053
of -0.036429 -0.28592 0.063387 -0.60122 -0.015309 0.073243 -3.8547 0.52809 -0.077859 -0.40756 0.44713 0.0056261 -0.38887 -0.0092043 0.26061 -0.45271 -0.50423 -0.38904 -0.30564 0.42003 0.011568 -0.25619 0.55622 0.17323 -0.30415 0.06224 -0.29075 -0.51046 -0.45783 -0.49763 -0.18727 -0.24962 -0.73865 0.046438 0.11561 -0.031821 -0.26618 -0.41581 -0.071389 -0.2079 -0.17899 0.040931 0.1425 -0.43102 -0.2068 0.2589 -0.36623 -0.22408 -0.45842 0.82779 0.53323 0.213 0.14102 0.4644 -0.19063 0.13789 0.23394 -0.48319 0.020489 0.035165 0.1129 0.31478 -0.11344 -0.12321 -0.071496 0.12934 0.51611 -0.17039 -0.10672 0.69655 -0.48179 0.037786 -0.2011 0.21367 -0.023501 -0.43007 0.45458 -0.18225 0.045348 -0.73977 -0.018974 -1.1612 0.046104 -0.59842 0.48152 0.077035 0.079665 -0.059979 0.28133 -0.19488 0.33882 -0.022075 0.34987 0.43741 -0.20609 -0.27658 -3.4348 -0.25458 -0.011177 0.2142 0.21506 0.78159 -0.0064574 0.052498 -0.53285 -0.32415 0.032445 -0.46545 -0.86625 0.13234 0.22265 0.63226 -0.23883 0.20949 0.0081047 0.25664 0.12726 0.4862 0.63486 -0.11147 -0.22792 0.46799 0.098441 -0.22575 -0.050439 0.26147 -0.35885 0.34768 0.46181 0.6723 -0.0088817 -0.3072 0.032602 -0.18653 0.014603 0.21552 0.021596 0.13545 0.30614 0.020874 0.19128 -0.31014 -0.091298 -0.03491 0.089525 -0.14151 -0.10139 -0.10558 0.43202 0.38602 0.067725 -0.49517 -0.43656 0.53588 -0.42404 -0.073479 0.31768 -0.1902 -0.10048 -0.41895 -0.085678 -0.31469 0.20415 -0.16602 -0.10681 -0.17592 0.0045544 0.1717 0.15179 0.02964 0.31657 0.11772 -0.060541 0.54928 0.24473 0.60053 -0.27232 -0.010884 -0.32954 0.21139 -0.05083 0.033311 -0.28025 -0.46744 0.73776 -0.5466 0.2121 -0.088026 0.18173 -0.26704 -0.14732 0.010112 0.12324 0.19112 0.2311 -0.13961 -0.14684 0.35858 0.59945 0.25938 -0.33926 0.48621 0.19161 -0.37456 -0.064856 0.19457 0.3635 -0.11403 -0.50548 -0.030436 0.44118 0.11703 -0.15215 0.17065 -0.3151 -0.16841 -0.51375 -0.06952 -0.28814 0.32903 -0.033493 -0.046118 -0.21614 -0.054066 -3.2795 -0.14166 -0.10367 -0.042882 -0.052912 -0.156 0.20207 0.24538 0.0051342 0.067185 0.08875 0.14647 0.24244 -0.25878 -0.22634 -0.07779 -0.41721 0.0017983 -0.078582 -0.1313 0.10876 0.152 -0.41862 -0.18904 -0.33577 -0.022991 -0.19204 0.0017913 -0.22954 0.28383 -0.64747 0.12466 -0.019468 -0.6369 -0.2137 0.51779 0.23749 0.55759 -0.12286 0.20406 0.26386 -0.094897 -0.20743 0.14492 0.24069 0.52458 0.11511 0.044618 -0.57734 0.32207 -0.097548 0.21445 0.16075 0.16482 0.29271 -0.08841 0.67936 0.32115 -0.21867 0.26709 -0.15852 -0.017671 -0.0092939 0.17614 -0.10259 0.033329 -0.021308 -0.66019 0.090383 0.12859 0.22616 0.30235 -0.25703 -0.48926 0.30537 0.27273
a -0.035835 0.77844 -0.51806 0.080682 -0.13173 -0.28606 -4.2485 0.81827 0.24034 -0.69057 0.21556 -0.12434 -0.54229 -0.15138 -0.13591 -0.5348 0.34595 -0.22926 -0.013789 0.047816 -0.041427 -0.41058 0.10172 -0.097093 -0.00064646 -0.026877 -0.23473 -0.06019 -0.3141 -0.5624 -0.079395 -0.22116 0.098952 0.089909 -0.068699 0.30787 0.35724 0.27748 0.21167 -0.020939 -0.48188 -0.14981 -0.19693 -0.19514 -0.029672 -0.2862 0.059519 -0.15534 -0.041982 0.31305 -0.10834 0.74492 -0.26733 0.090418 0.32783 -0.35072 0.0019352 -0.16018 0.35431 -0.066866 -0.094903 -0.026866 -0.44347 0.13844 0.14952 0.34483 0.12546 0.4631 -0.0058689 -0.41446 0.12612 0.13602 -0.43715 0.096268 -0.18979 -0.75418 0.35777 -0.017479 -0.21907 -0.18382 -0.27002 -0.54582 -0.45421 -0.54994 -0.43079 -0.11863 -0.47369 -0.099825 -0.14261 -0.081525 0.33486 -0.4146 -0.079636 0.30339 -0.42575 -0.34956 -2.7357 -0.74104 0.2163 0.42723 0.035431 -0.05464 0.70669 -0.29739 0.0083191 -0.19281 0.32391 0.0087548 -0.16015 -0.059082 0.17503 0.35089 -0.01354 -0.33457 -0.051774 0.01569 1.029 0.044273 0.44906 -0.29036 -0.78684 -0.060001 0.11784 -0.1194 0.20565 -0.30654 -0.10883 -0.076856 -0.027208 -0.0032139 -0.19201 0.13827 0.15239 -0.085574 0.25771 0.035583 0.25709 -0.13264 0.64585 0.539 0.09338 0.17612 0.45444 -0.30252 -0.51751 -0.0077072 0.52078 -0.22996 0.51313 0.6185 -0.271 0.18719 0.3466 -0.27276 0.34786 -0.31713 0.13038 0.021235 -0.25821 -0.14553 0.65942 -0.19469 -0.17672 -0.17879 -0.29119 0.2739 -0.074949 -0.35214 0.12527 -0.1515 0.16561 -0.35536 0.26169 -0.66952 -0.037627 0.24556 -0.47338 -0.19609 -0.16514 0.18519 0.74366 0.099546 -0.30843 0.082241 -0.14698 -0.53421 -0.0061243 0.57767 0.34576 -0.16245 0.062227 -0.274 -0.10936 0.17974 0.32881 -0.0009029 0.072287 0.11748 0.25142 0.062339 0.44903 -0.00094289 0.18164 -0.29528 0.17274 0.41538 -0.1912 0.14755 0.39594 -0.16013 0.064232 -0.32972 0.2003 0.31493 -0.43744 -0.13939 -0.10015 -0.20848 -0.22608 -0.048169 0.20638 0.51249 -0.341 -0.004226 -3.4638 -0.12878 -0.47151 -0.42011 -0.04058 0.042346 0.11615 -0.041935 0.038201 -0.24746 -0.093521 0.44521 -0.044714 0.32429 -0.13014 -0.3915 -0.461 -0.070122 -0.35223 0.38686 -0.25869 0.47497 0.076472 0.0085433 -0.4047 0.66155 -0.23044 -0.021724 -0.021885 -0.00054206 0.0065346 -0.074982 -0.59198 -0.61204 -0.14 0.19463 -0.17722 -0.51057 0.40299 0.2675 -0.29331 -0.18907 -0.37621 -0.4179 0.54875 0.070255 0.80564 -0.3841 -0.42401 -0.41384 0.43875 -0.29252 -0.091183 0.22039 -0.18372 -0.41012 0.62847 0.21983 -0.079124 0.019266 0.85543 -0.13378 0.60141 0.67718 -0.33309 -0.2561 0.084727 0.10459 -0.25359 -0.12002 -0.38965 -0.2878 0.0036703 0.022321 -0.31591 -0.35608
in 0.068507 -0.023344 0.28271 -0.40215 0.077815 -0.027003 -3.7645 0.41708 0.058373 -0.067997 0.32045 0.093317 0.35446 0.24415 -0.22822 0.21088 0.092499 -0.0766 -0.0030272 0.65657 0.10773 -0.17828 -0.1082 0.37832 -0.141 0.10373 0.15094 -0.43425 0.00019809 -0.39078 -0.51362 0.09536 -0.42444 0.15611 -0.32383 -0.12708 0.1385 0.21015 -0.3378 -0.4188 0.13787 0.29742 -0.27689 0.04996 -0.54465 -0.20988 0.25044 -0.33203 -0.2728 0.14554 0.60364 0.65656 0.0074453 -0.058784 -0.064545 0.75666 0.087701 -0.1936 -0.34405 -0.1472 0.0067563 0.18505 0.19937 -0.29199 -0.23206 -0.061202 0.21897 0.61196 0.5289 -0.10914 -0.77609 0.44075 -0.63157 0.35396 -0.29959 -0.15911 0.34515 -0.4131 0.41821 0.036273 -0.28904 -1.3799 -0.26149 -0.38145 -0.11302 0.20644 0.19689 -0.16254 0.61176 0.15381 -0.53395 -0.48077 -0.024011 -0.094099 0.22243 -0.14617 -2.9577 0.32627 0.10761 0.25086 0.20389 0.043559 0.37386 0.26832 -0.22787 0.14908 0.14154 -0.10015 0.31386 -0.1703 -0.060314 0.44677 0.64932 -0.3216 -0.55059 0.34674 0.22071 -0.35157 0.57815 0.25799 -0.41677 -0.17724 0.00032002 -0.61324 0.36185 0.055766 -0.136 -0.11536 -0.18133 -0.063293 0.37101 0.41068 -0.45675 0.0019741 0.052907 0.077341 0.047259 0.35521 0.94395 0.44756 -0.23055 -0.29585 -0.24687 0.3778 -0.070669 0.18335 -0.20146 -0.2345 0.60466 0.48813 -0.074877 -0.37743 0.13481 0.10849 -0.016328 -0.56793 0.096551 -0.28974 -0.85841 0.020689 0.55518 -0.20981 0.2382 -0.20757 -0.4081 0.10346 -0.027219 0.23233 0.047661 -0.026813 0.042456 -0.098405 0.40697 0.18637 -0.021596 0.38216 0.033878 -0.2535 -0.29586 -0.019435 -0.73558 -0.2914 -0.50521 -0.47852 -0.22671 -0.26419 -0.11708 0.16524 0.27825 -0.14631 0.051184 -0.009314 0.18186 -0.19979 0.13183 -0.11793 0.27146 0.19013 0.36612 -0.12877 -0.12857 0.094955 0.028475 -0.062946 0.25311 0.15169 0.15963 -0.22283 0.22304 -0.13993 0.23218 0.039904 0.046954 0.3138 -0.26845 -0.26303 0.14821 0.42341 0.34001 0.60787 -0.28699 -0.056269 0.11356 0.029713 -3.479 0.29802 0.03178 -0.035681 0.17751 0.16752 -0.2961 0.044736 -0.036076 0.30142 -0.34389 0.27084 -0.37026 0.2625 -0.47872 -0.0061819 0.055592 -0.061268 0.042886 0.1868 -0.12602 -0.078149 0.33139 -0.26079 -0.25363 0.40634 -0.34571 0.034084 0.1397 -0.1017 -0.11649 -0.19904 -0.027695 -0.31638 -0.038923 0.66143 0.34892 -0.18563 -0.12017 -0.42968 0.56684 -0.46318 0.010384 -0.16257 0.57057 -0.048416 -0.56498 -0.40066 0.17318 0.26049 0.45737 -0.51844 -0.46726 0.012543 -0.3206 0.068685 0.55413 -0.086315 -0.21519 0.66634 0.017061 -0.2999 -0.19917 0.17682 0.15799 0.15006 0.095986 -0.67037 0.59937 -0.14699 0.11697 -0.35628 0.11224 -0.23447 0.4055 -0.28067
is 0.11396 0.34503 -0.055064 -0.20192 0.20848 -0.09699 -4.0236 0.95046 -0.060803 -0.8326 0.39128 0.080882 0.19049 -0.043595 -0.39001 -0.34955 0.11262 -0.14287 -0.032761 0.067908 0.17553 0.31537 0.28348 0.10421 0.35078 -0.032335 -0.36486 -0.34773 -0.20653 -0.0396 -0.23032 -0.077951 0.23275 -0.30656 -0.42728 0.11155 0.56584 0.18156 0.24105 0.26077 0.10482 -0.17409 -0.27386 -0.19085 0.001336 0.15198 -0.085442 -0.45299 -0.25952 -0.10323 0.16033 0.84934 -0.14611 -0.097733 -0.10756 -0.64231 -0.086497 0.19817 -0.145 0.081023 -0.51695 -0.054831 -0.011848 0.14594 0.27602 0.2617 0.47357 0.080774 0.024029 -0.20884 -0.19015 0.13206 -0.3157 -0.38179 -0.099757 -0.47159 0.38781 -0.15529 0.14584 0.061407 -0.34411 -1.2493 -0.55997 -0.51856 0.25404 0.23224 -0.26082 -0.20301 0.091036 -0.15094 0.054542 0.12856 -0.25977 0.57906 0.43496 0.11506 -2.4913 -0.074039 -0.22596 -0.078059 0.37 0.14267 0.29842 0.25159 0.18929 -0.21655 -0.06477 -0.31406 -0.22593 -0.035533 -0.006801 -0.19788 -0.3362 0.11342 -0.26645 0.2006 0.53312 -0.17071 0.29388 -0.1544 -0.32386 -0.23815 -0.074312 -0.0023955 0.31235 0.023316 0.35249 -0.37121 -0.025591 0.11688 -0.1956 -0.037899 -0.059021 0.12694 0.015057 -0.059807 0.11488 0.1346 0.38488 -0.0070541 0.09581 0.26326 0.31792 -0.020803 -0.57065 0.2096 0.34243 -0.13416 0.15929 0.049954 -0.31797 0.092282 -0.36187 -0.15156 0.20105 -0.49372 -0.24939 0.52548 -0.067412 0.0029721 0.48416 -0.29553 -0.1868 0.057142 -0.038733 0.11757 -0.13336 0.2471 0.72767 -0.3194 0.43514 -0.15875 0.20184 0.093158 -0.19095 0.73837 0.3119 -0.18697 0.11706 -0.19537 0.04848 -0.13815 0.083468 0.10713 0.22465 -0.65526 0.51878 0.24839 0.13339 -0.0076668 -0.21111 0.33498 0.42292 -0.19456 0.565 0.45421 0.16063 -0.25718 0.43721 -0.42303 0.097476 -0.015056 0.064036 -0.087359 -0.0071586 0.38121 0.33028 0.29676 0.23904 -0.14327 -0.1011 -0.16298 0.15252 0.066246 0.087008 0.36414 0.23292 -0.54527 -0.17597 -0.57629 -0.27825 -0.21048 0.31815 -0.11145 -3.3707 -0.57578 -0.31548 -0.21493 0.06938 -0.29779 -0.12619 0.40149 -0.1364 -0.60166 0.013699 -0.14001 0.50957 0.034518 -0.082044 -0.15225 0.054835 -0.30277 -0.22071 0.22622 0.26695 -0.032464 0.055506 -0.071883 -0.12037 0.21999 -0.11196 -0.0095203 -0.054642 0.12505 0.38358 0.027555 0.052245 -0.014396 0.13378 0.1317 0.14486 -0.20949 -0.28146 0.063763 0.098775 0.12514 -0.76178 -0.12258 0.21425 0.021548 0.40072 -0.18433 -0.17931 0.079434 -0.62864 0.16945 0.15069 0.25897 -0.31789 -0.29582 0.81134 -0.45501 -0.2029 0.068279 -0.06824 0.29112 0.32883 0.20016 -0.23233 -0.59309 -0.085202 -0.018587 -0.25809 0.21739 0.21592 0.081633 0.12224 -0.37247 0.2879 -0.18029
for -0.23909 -0.64189 -0.58322 -0.54743 0.42386 -0.11755 -4.2169 0.28685 -0.30766 -0.6742 0.03867 0.23048 -0.15794 0.18097 -0.36886 -0.062423 -1.0884 -0.017109 0.43104 0.46903 -0.042397 0.40193 -0.32197 -0.15579 -0.33404 -0.30089 -0.0014094 -0.26075 0.35523 0.022844 -0.55828 0.041856 0.35331 0.077003 0.74886 0.055289 -0.04681 -0.46116 0.017485 0.35907 -0.045523 0.15166 0.12532 -0.071976 -0.25125 -0.1633 0.14621 0.1522 -0.061195 0.055225 -0.20055 0.19768 0.089176 -0.24682 0.39557 -0.32195 -0.22106 0.25966 0.22295 -0.40763 -0.73898 -0.18336 0.35442 0.02436 0.0032621 -0.0059417 0.072444 0.14596 0.18363 -0.36354 -0.042161 0.097704 -0.24172 -0.30751 -0.28351 -0.24189 0.21317 0.039802 -0.128 -0.53251 0.14721 -0.88563 -0.26101 -0.23944 0.06401 0.062381 0.097086 -0.013705 0.21058 0.27487 0.20148 -0.73965 0.12504 -0.27577 0.36771 -0.50487 -2.8465 -0.67549 -0.60059 0.046393 0.23611 0.094867 0.73862 -0.273 -0.11245 0.12585 0.41927 0.018334 0.56802 0.062212 -0.79614 -0.14668 0.25178 0.32088 -0.25628 -0.28704 -0.10473 -0.071085 -0.17309 0.12837 -0.51097 0.062379 0.0012732 -0.66104 0.40452 -0.33419 -0.56605 -0.20469 0.50518 -0.31826 -0.13561 -0.26213 -0.33163 -0.6108 -0.11304 -0.018907 -0.19176 -0.21306 0.36105 -0.031309 0.077629 0.6058 -0.34148 -0.13582 -0.082753 -0.071951 0.26333 -0.33163 0.43879 0.078885 -0.026479 -0.18038 0.099418 -0.065447 0.44726 -0.62344 0.05556 0.076232 -0.44274 -0.22871 0.37193 -0.3896 0.11575 -0.093648 0.25593 -0.34525 0.027353 0.086035 0.029737 -0.27269 0.0024322 0.24449 0.11212 -0.19905 -0.44804 0.62767 -0.080553 -0.50877 0.50385 0.42253 0.14679 -0.091549 -0.51924 0.099334 0.20448 0.41728 -0.11322 0.070377 0.34712 0.31102 0.077341 -0.034178 0.34331 0.36052 0.14237 -0.68782 -0.11412 0.13119 -0.20565 -0.15498 -0.26617 -0.58145 0.031516 0.05587 -0.21804 -0.15787 0.44752 -0.57015 0.44162 -0.26597 -0.63425 -0.019741 -0.39778 -0.089568 -0.4413 0.0096704 -0.033922 -0.19073 -0.12692 0.32455 -0.039806 0.26027 -0.3225 -0.24355 -3.1913 0.25131 -0.44537 0.26591 -0.0067639 -0.14244 0.16771 0.65056 -0.36999 -0.05739 -0.20538 0.17873 -0.095203 -0.13814 -0.11228 -0.23044 -0.2295 -0.23337 0.19978 0.36084 -0.23445 -0.090508 0.15121 -0.22822 -0.63549 -0.15704 0.1076 -0.09609 0.08585 -0.015386 -0.22488 0.19139 0.26345 -0.28821 0.44005 0.080017 0.50119 -0.35549 -0.23027 0.14742 0.38131 0.25844 -0.12763 0.34826 0.27506 0.48624 0.27677 0.32541 -0.028055 0.46142 0.57238 0.1628 0.18626 -0.2866 0.59975 -0.16204 0.095396 -0.096285 -0.10466 0.15689 0.35278 0.048956 0.15755 0.36086 -0.060806 -0.29091 0.24121 -0.26148 0.05192 0.035589 -0.1557 0.29341 -0.090526 -0.27433 0.019076 0.12692
: 0.18524 -0.37887 0.26603 -0.59301 0.65507 -0.088332 -2.511 0.77913 -0.60289 -0.42877 0.16887 0.98559 -0.49095 0.091008 -0.15037 -0.72456 -0.26129 0.52288 -0.048313 -0.65295 0.21471 0.38799 -0.10577 -0.29741 0.28791 -0.078379 0.13846 0.0475 0.27871 0.48087 0.68015 0.34165 0.53321 -0.13269 -0.094117 -0.27177 -0.26199 -0.96608 -0.37116 0.60954 0.28366 0.28325 -0.25089 0.57108 0.074725 0.2098 0.20687 -0.043224 -1.1696 -0.33808 0.34436 -0.036202 -0.85502 0.18101 -0.44146 1.1333 0.44425 0.070052 -0.028137 0.15389 -0.44741 -0.76146 0.025769 0.57776 -0.17777 -0.14727 -0.08749 -0.084997 -0.4259 0.16521 -0.60322 -0.22595 0.25026 -0.35568 0.054064 0.46647 -0.34279 0.44436 0.19123 0.017965 -0.45413 -0.33474 0.4419 0.16496 -0.16889 -0.16248 0.19866 -0.20442 -0.52295 -0.069982 0.038043 -0.55943 0.49931 0.18783 0.41319 -0.16213 -2.6708 -0.21528 0.33097 0.17506 -0.27152 0.17503 0.061198 -0.048763 0.17543 0.2748 0.36292 0.1034 0.06429 0.094507 -0.1908 0.036522 -0.67388 0.042702 -0.7629 0.061249 0.2339 0.63169 0.51758 -0.07616 0.17195 -0.08313 0.12372 -0.082896 0.59135 -0.15591 0.0020922 -0.036031 -0.017047 -0.32047 0.23856 0.25725 -0.44901 0.20282 -0.04172 -0.46867 -0.12855 0.10297 -0.82072 1.3329 -0.42935 0.58551 -0.28192 -0.83001 0.18132 -0.27045 0.50375 0.15416 0.33177 -0.078226 0.17272 -0.17693 0.65241 -0.43936 -0.38217 -0.028491 -0.022308 0.22461 0.16737 -0.42944 -0.042793 -0.51515 0.30534 0.27292 -0.18177 0.063515 -0.60543 0.11819 0.1424 0.013873 -0.48959 0.24334 0.3911 -0.40884 -5.6906e-05 -0.5198 -0.20315 0.21492 0.03981 -0.38968 -1.032 0.64643 0.4533 0.29474 0.13341 0.1104 -0.11518 -0.75806 -0.6809 -0.080872 0.64041 -0.075078 0.84564 0.082781 0.47554 0.42379 -0.18515 0.65767 0.26898 0.19334 -0.14757 0.62914 0.45802 -0.36344 -0.0028786 -1.2593 -0.41381 0.16725 0.16111 -0.12891 0.35258 -0.15861 -0.15312 -0.36222 -0.31103 0.49892 0.79551 -0.37941 0.68283 0.02999 -0.25482 0.26507 -0.16327 0.1135 -3.768 0.31203 0.11916 0.6706 -0.58409 0.074425 0.049166 -0.065358 0.67052 0.42993 0.20407 -0.6565 0.37971 -0.037463 -0.075834 -0.44218 -0.2961 -0.1381 -0.54767 0.080978 0.57841 0.030677 0.34813 -0.28161 0.42822 -0.017404 0.29732 0.38627 -0.42612 0.7725 0.39136 0.2569 -0.38934 0.35734 0.14599 0.065006 -0.13783 0.14222 -0.040797 -0.20202 0.1349 -0.42088 0.45794 0.071163 -0.26991 1.0147 0.50058 0.45612 -0.77709 0.86904 -0.032782 -0.11692 0.30304 -0.51648 0.63102 -0.076382 -0.15936 -0.50472 -0.74426 -0.21099 -0.089563 -0.091409 -0.6027 0.12475 -0.15683 -0.62756 0.77533 1.2472 -0.9117 -0.12674 0.39212 -0.28231 -0.87358 -0.1776 -0.24893 -0.3163
i -0.043504 -0.18484 -0.14613 -0.21751 0.2025 0.044053 -4.2823 -0.034931 0.10337 -0.68931 0.078928 -0.19808 0.10099 -0.21902 0.23785 -0.18958 -0.076054 0.080842 0.30931 -0.038854 0.55597 -0.2242 0.3882 0.15026 -0.29439 -0.56333 -0.4194 -0.27953 0.15539 -0.062982 -0.069327 -0.039159 0.40351 -0.021251 0.3225 -0.10849 -0.34141 -0.12177 0.29162 0.089426 0.020347 0.34924 -0.19546 -0.26214 -0.20894 0.010233 -0.072328 -0.42755 -0.038977 -0.31352 -0.10783 -0.3255 0.17601 -0.32614 -0.16987 -0.057348 0.093224 -0.30891 0.46086 0.10613 0.19984 -0.17867 0.127 -0.29539 0.020387 0.42015 -0.098038 -0.11268 -0.37727 -1.055 -0.23141 -0.20308 0.4013 -0.069317 0.25465 -0.33846 0.6358 -0.064021 0.31587 -0.10926 0.29826 -0.6937 -0.52955 -0.14204 -0.12114 -0.1731 0.16079 -0.052081 0.092534 0.020896 0.21948 -0.081917 -0.096628 0.17746 -0.45614 -0.15351 -1.8311 -0.060287 0.066335 0.2843 -0.073177 -0.25603 -0.052033 -0.10733 -0.026687 -0.3235 0.0011775 -0.14627 -0.074643 -0.17963 0.16691 0.00028942 -0.1076 0.40056 -0.20383 1.0869 0.10362 -0.37086 0.24985 0.20921 0.1671 -0.049194 0.15099 0.30347 0.26684 -0.35441 -0.13476 0.16374 -0.08326 -0.043688 -0.31049 -0.0086838 -0.12193 -0.35278 0.16532 -0.067317 0.52239 -0.18702 0.10217 0.8081 0.11712 0.32835 0.12259 -0.24434 0.43636 -0.4618 0.26365 -0.27708 0.26264 0.026084 0.2331 -0.037621 0.01235 -0.36741 -0.061117 0.033803 -0.29691 0.065067 -0.27793 0.066063 0.28317 0.26602 -0.3253 -0.42407 0.12035 0.46093 0.37397 -0.24189 0.23685 -0.50295 -0.2154 0.11192 -0.12174 -0.094199 -0.27255 0.3302 -0.1564 -0.056053 -0.13629 0.058632 0.045838 0.55262 -0.12814 0.078153 -0.30575 -0.25255 0.22152 -0.38837 -0.0060042 0.0013889 0.39918 -0.28278 0.34967 -0.15238 0.044938 0.10729 0.25289 -0.40761 0.2823 -0.31936 0.33705 -0.26131 -0.11741 0.38829 -0.23005 -0.0044883 -0.30692 -0.37239 0.77491 0.33351 0.54766 -0.15144 -0.0043475 -0.43681 -0.051382 0.13585 -0.17978 0.13712 0.055 -0.10995 0.017427 -0.10725 -0.11014 -0.18704 -3.5946 0.11965 0.4042 -0.11872 0.12854 -0.045573 -0.58077 0.12805 0.18949 0.060238 -0.31284 -0.06668 -0.17352 0.49526 -0.31845 0.22007 -0.30396 0.1529 -1.0693 0.49687 0.1404 0.26403 -0.30594 0.15625 -0.045417 0.40266 0.069006 0.077115 0.032278 0.010174 0.46835 -0.075905 0.45815 -0.089478 0.034056 0.075866 -0.51797 -0.44302 0.026851 -0.13001 -0.035663 -0.35556 0.019674 -0.10015 0.077083 -0.46469 -0.060102 -0.31173 -0.24843 -0.30887 0.051811 0.098181 0.35691 0.2406 0.36622 0.046849 1.1107 -0.28632 0.49063 0.40494 -0.0041022 0.19997 -0.02471 0.21743 -0.10444 0.17242 -0.15222 -0.10119 -0.20508 -0.37518 0.21623 0.26467 -0.081656 0.1008 0.1068 0.089065
) 0.26667 -0.23015 -0.01352 0.10943 0.71197 -0.090025 -2.5768 0.88659 0.21025 -0.31948 0.58588 0.67079 -0.12653 0.31632 0.12701 0.14976 -0.49463 0.22453 -0.043073 -0.028317 0.50194 0.28411 0.15523 0.078399 0.24434 -0.33035 0.41031 0.3699 -0.61482 -0.074343 -0.62738 -0.010309 -0.95638 -0.32164 0.074342 -0.2452 -0.41428 -0.048367 -0.37011 0.034152 0.75572 -0.26022 -0.32155 -0.022733 0.56022 -0.14057 0.6231 -0.12515 0.46278 0.090383 -0.24517 -0.20448 -0.44479 -0.18852 0.075946 -0.72078 0.35465 0.38543 -0.26633 -0.45355 0.45138 -0.093898 0.02914 0.52585 -0.46625 0.006238 0.078032 0.17684 -0.25892 0.28059 -0.44845 0.19041 0.36967 -0.21003 0.37713 -0.45568 -0.47609 -0.10363 -0.44441 -0.52894 0.68394 -0.66284 0.65255 -0.18063 0.30286 0.088442 -0.022566 -0.12702 -0.19133 0.63179 -0.35099 -0.10213 0.064386 -0.19172 0.27571 0.18844 -2.5759 0.53847 -0.20514 -0.13072 -0.42337 -0.1293 -0.014951 0.082325 0.11717 -0.36795 -0.33252 0.30988 0.23404 0.023456 -0.23246 0.05062 -0.3451 -0.48295 0.18911 0.37081 0.79475 -0.25726 -0.31557 0.88027 0.281 -0.63176 -0.30507 0.17949 -0.030283 0.63066 -0.049994 -0.20822 -0.38529 0.50226 -0.1818 0.28103 -0.46593 0.0099929 0.11186 0.75747 0.33852 -0.55423 -0.19801 1.3019 -0.39106 0.091197 -0.026081 -0.58972 0.083129 -0.68824 0.23169 0.17169 0.045611 -0.16345 -0.73675 -0.6217 0.35162 0.099628 -0.065537 -0.10064 -0.72815 0.011016 0.31963 -0.47494 -0.30881 0.055299 -0.40056 -0.88493 0.40312 -0.17932 -0.053653 -0.16629 -0.90349 -0.1969 -0.2281 -0.59799 -0.21185 -0.5029 0.0038485 0.38916 0.061698 -0.078992 -0.42085 -0.33722 -0.53146 0.076515 -0.0086711 0.1357 -0.19069 0.011674 -0.032666 0.26495 -0.65841 0.36407 -0.25632 -0.57774 0.28258 0.28344 0.018689 -0.59872 -0.22207 0.20856 -0.47788 -0.64584 -0.10071 -0.40016 0.37631 -0.082383 0.31632 0.56173 0.19774 0.47756 -0.12815 -0.16981 -0.19379 0.024901 -0.24717 0.10622 -0.26694 0.20169 -0.22079 -0.56174 -0.37343 -0.22815 0.44388 0.0026693 -0.071211 0.24887 -3.732 0.60711 0.18625 -0.48488 -0.063947 0.18564 -0.018897 -0.073706 0.10377 0.3413 0.38021 -0.23779 0.77126 -0.24749 -0.58308 -0.22443 0.14134 -0.50424 0.037867 0.17546 0.045416 0.07755 0.63273 -0.22014 -0.099165 0.068551 -0.2086 -0.049241 -0.33025 0.62432 -0.59691 -0.0563 -0.47216 -0.0045292 -0.08314 -0.031489 -0.2116 0.27204 -0.31475 0.24339 0.38134 0.11148 0.075824 0.22624 -0.055018 0.41179 -0.16176 0.065073 -0.40046 -0.21377 -0.04112 0.48922 0.17673 -0.30677 0.41533 0.19262 0.17683 -0.28761 -0.53603 0.39015 0.024465 -0.15745 0.88456 0.41616 -0.10685 -0.16308 0.02115 0.083233 -0.77612 -0.12464 0.13537 0.19015 0.1245 -0.31627 -0.086 -0.70107
( 0.22566 -0.37112 -0.21545 -0.01641 0.33053 -0.15235 -2.7064 0.93984 0.20524 0.14341 0.70853 0.50396 0.10787 -0.15714 0.28867 -0.084845 -0.37772 0.40769 -0.33547 -0.50082 0.51465 0.28739 0.24833 0.34617 0.029698 -0.61897 0.50856 0.20075 -0.57633 -0.35479 -0.58836 0.029269 -0.83585 -0.48034 0.079937 -0.607 -0.47937 -0.21791 -0.28979 0.055326 0.4014 0.027858 -0.28758 -0.25079 0.61711 0.062885 0.66242 0.35049 0.31549 0.36766 -0.059226 0.10647 -0.11032 -0.23799 0.19918 -0.5222 0.22848 0.20725 -0.12297 -0.64342 0.22021 -0.011356 -0.28359 0.37656 -0.019267 0.045466 0.43289 0.73138 -0.18747 0.61342 -0.45276 0.4998 0.67908 -0.0045247 0.7982 -0.24 -0.27308 -0.029924 -0.65473 -0.11705 0.47704 -0.97719 0.43286 -0.05048 -0.060766 -0.065755 -0.081354 -0.2338 -0.52166 0.44514 -0.33812 -0.11598 0.3125 -0.14082 0.2082 0.23779 -1.9048 0.24316 -0.23711 -0.20603 -0.39892 -0.223 0.3588 0.12751 -0.0073575 -0.23636 -0.61311 0.44607 0.29656 0.087632 -0.12924 -0.055266 -0.093017 0.013243 -0.15858 0.24048 0.74807 0.29853 -0.0027507 0.24778 0.26917 -0.47187 -0.30178 0.089973 0.19959 0.71246 -0.25001 -0.30476 -0.42302 0.30042 0.012942 0.11081 -0.10459 -0.024149 -0.04978 0.1043 0.52985 -0.20601 -0.23441 0.98773 -0.61963 0.17015 0.0577 -0.46928 0.22766 -0.66024 0.33885 0.2728 -0.19034 0.048107 -0.90716 -0.56721 0.024759 -0.045172 -0.40045 -0.45319 -0.40496 0.15477 -0.061433 0.01009 -0.47817 0.23192 -0.34431 -0.28817 0.0010155 -0.33073 -0.25678 0.024586 -0.13367 -0.22997 -0.48891 0.031355 -0.34323 0.2834 0.29578 0.52079 -0.078017 -0.72268 -0.56161 -0.25226 0.011491 -0.049597 -0.25661 -0.16012 0.029665 -0.081102 0.20477 0.10081 -0.54743 0.14727 0.11488 -0.16474 0.14744 0.28595 -0.15144 -0.073234 -0.11106 0.061497 -0.41449 -0.81262 0.016904 -0.12148 -0.0054016 -0.14345 0.36979 0.58625 0.31731 0.21677 0.10616 -0.56594 -0.3444 -0.16539 -0.27407 -0.39674 -0.2103 0.087907 -0.034684 -0.68675 -0.056865 0.18112 0.59311 0.26316 -0.2327 -0.035298 -4.0979 0.47216 -0.28693 -0.33641 -0.43626 0.46494 0.01585 -0.049069 0.033508 0.50443 0.46245 -0.32496 0.29819 -0.3999 -0.66735 -0.36449 -0.27742 -0.3471 -0.14502 0.35473 -0.14664 -0.24655 0.27225 -0.33168 0.086345 -0.093201 0.038639 0.21626 -0.60329 0.96447 -0.61508 -0.36709 -0.6391 0.1957 -0.098272 -0.001105 0.10694 -0.085983 0.34202 0.49881 0.43774 -0.1966 -0.13882 0.017656 -0.01865 0.48943 -0.40127 0.21374 -0.3822 -0.22486 -0.21586 0.428 0.69237 -0.39792 -0.10378 0.074862 0.25537 -0.43377 -0.67097 0.676 0.26108 -0.3603 0.67061 0.31876 0.13483 0.12858 0.25021 -0.22768 -0.64548 0.099261 0.081619 -0.2086 -0.33346 -0.37321 -0.12199 -0.83965
you -0.045315 -0.010389 -0.19798 0.0074069 0.13915 0.28315 -4.8578 0.059722 -0.041928 -0.67951 -0.22934 -0.037041 0.19498 -0.13721 -0.080921 -0.36824 -0.2795 -0.085557 0.35912 0.059352 0.54356 -0.22451 0.185 0.07815 0.16331 -0.089605 -0.46924 0.013166 -0.23992 0.04183 -0.13411 -0.055497 0.51085 -0.095635 0.0074226 -0.15482 -0.16071 -0.17246 0.040188 -0.12358 0.057126 0.27466 -0.26531 -0.69652 -0.10367 0.36027 -0.22818 -0.14271 0.31034 -0.063622 -0.32047 -0.21441 -0.0066035 -0.44397 -0.23058 -0.46539 0.13063 -0.33903 -0.27848 0.10887 0.23154 -0.11992 0.45113 -0.27517 0.24792 0.56239 -0.11223 0.069393 0.21719 -0.45379 0.072769 0.26735 0.12143 -0.12206 -0.41705 -0.040107 0.64978 0.24525 0.31934 0.12291 0.17259 -0.033497 -0.14209 0.1935 -0.087972 0.035018 0.28217 -0.10064 -0.34261 0.28151 -0.099521 -0.21059 -0.0066425 0.14989 0.04176 -0.79869 -2.4338 0.04226 0.47656 0.14805 -0.09508 0.19522 0.43368 -0.16548 -0.28798 -0.28266 0.16387 -0.4426 -0.42175 -0.11584 -0.019352 -0.3026 -0.095344 0.26175 -0.55522 0.076841 0.21394 -0.17809 0.007211 0.28537 0.010352 0.024934 0.44049 -0.17627 0.2039 -0.44226 0.062315 -0.038854 -0.14574 0.2271 -0.45789 0.11289 -0.084069 -0.049833 0.23436 0.015757 0.59109 -0.48919 -0.24474 0.90254 0.30238 0.17645 0.36994 -0.014467 -0.22783 0.018348 -0.14856 -0.31404 0.1153 -0.10809 -0.027889 0.11631 0.077681 -0.20062 0.18744 -0.042037 -0.10761 -0.027421 0.21262 0.003162 0.58733 -0.084987 -0.47666 0.075267 -0.29273 0.082457 0.078855 0.31808 0.41172 0.14907 -0.14365 0.019729 -0.24756 -0.34937 -0.29368 0.17052 0.16058 -0.27608 0.34404 -0.37101 0.285 -0.13341 -0.17254 -0.25566 -0.042631 -0.34874 0.45017 0.054868 0.31624 -0.29514 -0.16589 0.34528 -0.056808 -0.00018091 0.63327 -0.39434 0.46145 -0.050789 0.22207 -0.046614 0.31343 -0.0868 -0.12464 0.15644 -0.25294 -0.10938 -0.19215 -0.20576 0.38496 -0.24239 -0.027065 -0.44619 -0.018965 -0.17858 0.1412 0.043227 -0.074112 -0.084025 -0.046369 -0.13821 -0.076064 -0.04409 -0.091823 -0.19374 -3.0363 0.23397 -0.28761 -0.031891 0.1153 -0.16362 -0.11093 0.26248 0.10115 -0.0052696 -0.17305 -0.074938 -0.14486 -0.024029 -0.26933 -0.16745 -0.24481 -0.0043717 -0.64694 -0.081254 -0.048565 0.11387 -0.23756 0.43416 -0.087395 0.065356 -0.019127 -0.070495 -0.24685 -0.3798 0.1424 -0.30037 0.17801 -0.02579 -0.086309 -0.16668 -0.28964 -0.41512 0.16919 -0.33368 0.00691 -0.19671 -0.16635 -0.13223 0.33972 -0.09311 -0.26781 -0.35747 -0.47576 0.025746 0.16696 -0.11538 0.0097573 0.33078 0.45239 -0.27258 0.41012 -0.20411 -0.077906 0.26716 -0.22702 0.33231 -0.0090755 -0.047777 -0.27195 -0.13876 0.089044 -0.18412 -0.36055 -0.12008 0.1192 -0.10877 -0.19421 -0.41484 0.11124 -0.12042
it 0.39457 -0.013387 -0.23289 -0.1601 0.32788 -0.071888 -4.9166 0.42002 -0.070704 -0.72314 0.091783 -0.30671 0.26245 -0.092867 -0.2409 0.048326 -0.072396 -0.067508 0.21836 -0.040157 0.25487 -0.286 -0.0093754 -0.24727 0.10982 -0.13302 -0.23697 -0.012397 0.15094 0.067324 -0.29848 -0.071428 0.11688 -0.2442 -0.094349 0.2311 0.16316 -0.21772 0.1929 -0.20452 0.20977 0.071821 -0.19373 -0.030947 0.056555 0.10305 0.044956 -0.41205 -0.27989 -0.26539 -0.14482 0.27595 -0.24897 -0.12444 -0.12817 -0.5881 0.031092 -0.19695 -0.059683 0.022946 0.34043 -0.13274 0.10429 -0.034739 0.011724 0.242 0.24059 0.14266 0.18056 -0.19891 0.0040047 0.32522 -0.077831 -0.34488 -0.21437 0.12465 0.38722 0.061659 0.10701 0.19208 -0.44891 -0.61791 -0.33707 -0.13119 -0.091813 -0.09144 -0.094051 0.13404 -0.19336 0.029288 0.14759 0.027914 -0.14386 0.16088 0.12491 -0.063705 -2.1602 -0.24617 0.16771 -0.079031 0.10777 0.27368 0.27345 0.27381 -0.091462 -0.24853 0.26203 -0.214 0.008775 -0.29821 -0.19149 -0.064224 -0.099153 -0.12822 -0.31856 0.26011 0.42875 -0.3095 -0.015697 0.31237 -0.25497 -0.053742 0.27814 0.10271 -0.15525 -0.22801 -0.00011426 -0.3545 -0.016981 0.26014 -0.40949 -0.093622 -0.045268 0.19359 0.20905 0.012217 0.36235 0.1706 0.30244 0.50852 -0.056089 0.26853 0.41433 0.19774 -0.0077277 0.059937 0.49664 -0.28083 0.38949 0.27273 -0.064584 0.14594 -0.16866 -0.51417 0.41891 -0.34648 -0.14804 0.01946 -0.41698 -0.044667 0.27043 0.20731 -0.30694 -0.037941 0.14281 -0.02102 0.024401 0.12598 0.61952 -0.45826 -0.028592 -0.051178 -0.23245 -0.1378 -0.22968 0.17349 -0.18584 0.21256 -0.13043 -0.47431 0.069997 0.13364 0.18428 0.098638 -0.25771 -0.34397 0.13438 -0.25553 0.095159 -0.095461 0.18735 -0.43694 -0.095595 -0.21427 0.19406 -0.032257 -0.012231 -0.12799 0.19049 -0.34733 0.18906 -0.23075 -0.51525 0.12028 -0.027512 0.1711 0.19029 -0.0012909 0.47697 0.1228 0.093411 -0.20419 -0.19148 -0.24021 0.10563 0.057533 0.12664 -0.19644 -0.19929 -0.14172 -0.0019814 -0.5875 0.36457 -0.42278 -3.0764 0.30909 -0.064355 0.03457 0.32523 -0.54723 0.143 0.2029 -0.0016222 -0.32061 -0.046331 -7.4381e-05 -0.064936 0.13024 -0.17944 -0.049575 0.13376 0.060678 -0.68073 0.3987 0.13057 -0.069976 -0.010967 0.063051 -0.033454 0.007602 0.053216 -0.18879 0.0077993 -0.21944 0.24179 0.024485 0.032077 -0.027992 -0.46716 0.13913 0.08745 0.21441 -0.05296 -0.40107 0.0070542 0.1232 -0.29873 -0.11932 -0.074749 0.0039676 0.27828 0.032495 -0.23917 -0.26956 0.0065476 0.045396 0.28008 0.18561 -0.13325 -0.082449 1.0633 -0.36476 0.12634 -0.032615 -0.08159 -0.040808 -0.10173 -0.25261 -0.2811 -0.059487 -0.022828 -0.0058922 -0.22167 -0.13003 0.15824 0.04191 0.36091 -0.17451 -0.092674 0.20148
on 0.00060657 0.048631 0.48969 0.42777 -0.3861 -0.0084231 -3.6027 0.47811 0.047945 -0.31859 -0.21335 -0.51531 -0.17142 -0.20035 0.70538 -0.17186 -0.54713 0.68465 -0.040384 0.24141 0.53936 0.10057 -0.14953 -0.28165 -0.44468 -0.69436 -0.10518 -0.30014 0.12637 0.71193 -0.20152 -0.11507 0.053484 0.13611 0.0023964 0.24965 -0.26389 -0.64683 -0.16104 -0.37846 -0.20946 -0.10369 0.22179 -0.72445 -0.055569 -0.51117 -0.020982 0.14127 -0.39321 0.22062 0.082094 0.053219 -0.86973 -0.17208 0.043798 -0.05605 0.36899 -0.092699 0.19369 0.59429 -0.10439 0.52525 0.41624 0.15565 -0.19486 -0.46395 -0.16372 0.32242 0.30328 -0.10038 -0.31126 -0.091417 -0.43295 0.051531 0.059131 0.099654 0.29146 0.019551 -0.22547 -0.31254 -0.43268 -0.59699 0.25903 0.0061463 0.23724 0.17422 -0.62129 0.30664 0.11598 0.16893 0.26485 -0.023562 -0.28476 0.32007 0.33411 -0.79123 -2.5263 0.77887 -0.036362 -0.22488 0.21838 -0.18917 -0.17813 -0.12703 -0.09161 -0.25722 -0.23141 0.24344 -0.29977 -0.39411 -0.31091 -0.71663 0.71927 0.40314 -0.3998 -0.081807 0.48831 -0.26558 -0.2449 -0.72728 -0.65682 0.61916 -0.082432 -0.66695 -0.07183 -0.0060302 -0.14047 0.10774 -0.0294 0.43884 -0.10434 0.77235 0.26651 -0.15147 -0.15951 0.11666 0.033501 0.055742 -0.07072 0.81983 -0.094083 0.17576 0.32675 -0.05292 0.29963 0.062303 0.30784 -0.48853 0.87214 0.48469 0.15472 -0.47794 0.0035701 0.2851 0.45573 -0.49919 -0.32528 0.0050259 -0.10745 -0.3838 0.18128 0.31121 -0.16429 0.25904 -0.0020586 -0.42063 -0.06752 0.11249 -0.062841 0.0090842 -0.62864 -0.23783 0.16221 0.22003 -0.13259 -0.34341 -0.0038345 -0.031361 0.29267 0.011335 -0.16943 0.62525 0.0018924 0.3443 -0.077261 0.090077 -0.29513 -0.3287 0.02348 -0.12653 0.093243 -0.5803 -0.18007 -0.036697 -0.091138 0.080947 -0.13167 0.069933 -0.019786 -0.26451 0.095616 -0.0388 -0.23523 -0.11224 0.29692 -0.13358 -0.018443 -0.55351 -0.071414 0.30206 -0.040702 -0.099249 -0.62182 0.13056 0.37276 -0.51884 -0.72358 0.19346 -0.077715 0.22269 -0.43023 -0.13878 0.45398 0.40267 -3.799 0.29864 -0.10014 0.053288 0.27437 -0.18284 0.59567 0.59842 -0.32466 0.0035302 0.3772 -0.072068 -0.31471 -0.12439 -0.39985 -0.36131 -0.0094553 0.41125 -0.44127 0.13517 -0.18269 -0.47905 -0.056259 -0.23687 -0.20079 0.26212 0.18157 -0.35366 0.23476 0.12185 0.16606 0.3574 -0.45782 -0.35614 0.29046 -0.29956 0.26952 0.01434 -0.026618 0.31496 0.21012 0.103 -0.51883 -0.50328 0.14767 -0.14743 0.2322 0.029708 0.1736 0.39443 0.19012 0.059954 0.40225 -0.13333 0.43591 -0.19416 0.4944 -0.35507 -0.17199 -0.2775 0.026634 -0.16227 0.16202 0.37628 -0.19416 0.21528 0.27162 0.27112 -0.27549 0.28545 0.14925 -0.28046 -0.49446 0.13731 0.13866 0.314
- -0.27881 -0.40271 -0.18591 -0.27202 0.28409 0.25364 -2.5526 0.12913 -0.59799 -0.66368 -0.21798 1.1541 -0.28388 0.47289 0.23968 0.16269 -0.19289 0.59471 -0.4954 -0.57984 0.098453 0.50695 0.0076513 -0.096948 0.33477 0.073464 0.081899 -0.16084 0.3847 -0.0033582 -0.43921 -0.16995 0.73148 -0.43821 0.23778 -0.20635 -0.69562 0.81194 0.28341 -0.069185 -0.2758 0.31212 -0.54979 -0.25831 0.43145 -0.51619 -0.051051 -0.58811 0.1407 -0.73657 -0.56138 -0.33934 -0.35815 0.75992 -0.028904 -0.42664 0.09859 0.78329 -0.036797 -0.74718 0.42716 -0.17777 -0.22688 0.06514 -0.1778 -0.065114 0.22365 0.3185 0.041531 0.84846 -0.74444 0.18511 -0.33613 -0.252 -0.48548 -0.29405 0.001448 0.4855 -0.59234 0.32173 0.92677 -0.65704 -0.015583 0.38582 -0.15485 0.42602 0.84531 0.16892 0.041489 0.3778 -0.7439 -0.10633 0.19555 -0.26168 -0.34556 -0.0022175 -2.2717 0.21014 -0.21056 0.17363 -0.78818 0.0061095 0.058268 -0.44657 -0.054329 -0.48545 -0.16541 0.91224 -0.73494 -0.037926 -0.44599 -0.83551 -0.21933 -0.10028 -0.24455 -0.13427 0.3637 0.60357 0.19547 -0.22274 -0.53428 -0.4656 0.091585 0.24125 0.25163 -0.13095 -0.073739 0.62393 -0.14401 -0.55367 -0.50398 0.08876 -0.33294 0.20396 0.59646 -0.80374 0.3395 -0.16926 -0.44729 1.0446 -0.12029 -0.067893 -0.14972 -0.29282 -0.27511 -0.21115 0.44957 -0.32285 0.29852 -0.32795 0.23129 -0.65126 -0.16774 -0.12425 -0.35081 -0.32512 0.70651 -0.15158 0.25328 -0.65039 -0.12799 0.72675 -0.30144 -0.38425 0.39036 -0.046291 0.010203 -0.40669 0.062884 0.11154 -0.53525 -0.30577 -0.051006 0.32127 0.22955 -0.45942 0.10572 -0.35493 0.4441 0.30738 -0.35036 -0.71524 0.10817 -0.14946 0.57782 0.10566 0.44825 0.47138 -0.048961 -0.4194 -0.25798 -0.061018 0.39211 -0.82027 -0.36804 -0.031183 -0.10098 0.071381 -0.12357 -0.33102 -0.32745 -0.36051 0.24736 0.17 0.017463 -0.32852 0.41652 -0.058722 0.22584 0.64524 -0.3729 -0.4406 -0.17576 0.27024 0.19166 0.096023 0.15516 -0.23524 -0.37527 -0.20913 -0.18731 -0.046447 0.17133 0.095358 -4.1563 0.3794 0.12585 -0.055807 0.25315 -0.099114 -0.68619 0.28612 0.3537 0.75654 0.52138 0.28431 -0.26772 -0.16692 0.28497 -0.62988 0.48406 0.20377 -0.11219 0.65251 0.011257 0.056178 0.87677 0.055248 -0.04219 -0.45015 -0.33092 0.28266 -0.15198 0.0058738 -0.067593 -0.20925 0.37602 -0.40575 0.44603 0.14612 -0.10846 0.055436 -0.22304 -0.2564 -0.086234 0.32539 0.23037 -0.47501 -0.20469 0.5957 -0.1538 0.14353 -0.55308 0.1551 -0.26415 -0.057782 0.55282 -0.41416 0.14159 -0.50983 0.28156 -0.70852 0.091054 0.45901 -0.43372 0.15699 0.48727 0.21601 0.21845 0.039081 0.42541 0.24365 0.046829 -0.41852 0.77665 0.37893 -0.0075525 0.3788 0.25532 0.31518
with -0.5059 -0.5484 0.016064 -0.2958 -0.011176 -0.34265 -4.1862 0.27089 -0.12563 -0.87379 0.27529 -0.15768 -0.17751 0.14834 -0.04537 -0.36249 0.10482 -0.15905 -0.1397 0.27204 0.31603 -0.13946 -0.16967 0.30389 0.30068 -0.19355 0.43105 -0.11988 -0.66505 -0.58762 -0.54998 0.0379 0.20077 0.0048074 0.43618 -0.15079 -0.015927 -0.39375 -0.056553 -0.23345 0.19826 0.019487 0.0062278 -0.0058821 -0.45851 -0.25807 -0.23519 -0.099885 -0.070737 0.31516 -0.13265 -0.36219 -0.44268 -0.17912 -0.13292 0.29205 0.10254 0.25543 0.028781 -0.13865 -0.31925 0.41302 -0.17799 -0.12702 0.098795 -0.22646 -0.13554 0.42708 0.2249 -0.25956 0.2177 -0.12472 0.35958 -0.18779 -0.12109 -0.21025 0.40939 -0.11096 0.24674 -0.037028 0.50299 -0.35385 -0.12753 -0.70621 -0.049737 0.47613 -0.26004 -0.16942 -0.049991 -0.099358 -0.13827 -0.15574 0.11202 -0.21052 0.12917 -0.27971 -2.7805 0.067309 0.33469 0.31806 -0.20767 -0.075595 0.76232 0.074744 0.16423 0.28345 0.31875 0.23343 -0.019645 -0.33883 -0.41741 0.2719 0.14156 -0.071546 0.05937 0.15164 0.49894 0.24536 0.57224 0.07217 -0.33909 -0.46155 0.10924 0.16557 0.066051 0.026032 -0.43807 -0.42092 -0.28026 0.024885 0.27317 -0.07268 0.21461 -0.22214 0.13686 0.23838 -0.10008 0.037528 0.38336 0.57881 0.51052 0.027064 0.4099 0.2377 -0.17262 -0.053371 0.32491 -0.52348 0.63099 0.045803 0.10019 -0.32733 0.16484 -0.27404 -0.13815 -0.47169 0.65011 0.19194 -0.46875 -0.42014 -0.12024 -0.32632 -0.22722 -0.53484 0.097272 0.12605 -0.65362 0.51004 -0.029736 -0.77055 0.66478 -0.27126 -0.043972 0.38734 -0.6105 0.14618 -0.15378 0.25448 -0.089718 -0.059511 0.52333 0.013335 0.16047 -0.042656 0.59568 -0.12648 -0.092494 -0.050662 0.29705 -0.035139 -0.090927 0.17209 -0.62759 -0.096607 0.029426 0.25656 -0.12389 0.033436 -0.22577 0.11922 0.025829 0.14317 0.054745 0.054432 0.092395 0.15837 0.0014614 -0.43244 0.073078 -0.35045 0.42559 0.39222 -0.27383 -0.10273 0.1738 -0.15884 -0.16577 -0.18425 -0.069388 -0.10317 -0.0066675 -0.32161 0.83683 0.19015 -3.1891 0.0048553 -0.74334 -0.19918 -0.38536 0.067666 0.99252 -0.13086 0.26221 -0.46838 0.21489 -0.071302 0.19504 0.18528 -0.27303 -0.17462 -0.32885 0.072765 -0.36684 -0.018391 0.21927 0.1916 -0.16712 -0.1072 -0.18349 0.49746 -0.31909 -0.40279 0.075443 0.30968 -0.20805 -0.27289 -0.06213 -0.28192 -0.18649 0.055138 0.40393 -0.44964 0.21417 -0.33113 -0.051648 0.040814 -1.1851 0.28318 0.39281 0.13108 -0.24348 0.043826 -0.55095 -0.0068159 0.45369 -0.19404 -0.046271 0.31347 0.30931 -0.27376 0.55688 0.045063 0.075766 -0.080772 -0.081128 0.10789 0.22814 0.34769 -0.096499 -0.097801 -0.034727 -0.082055 -0.22632 -0.10362 -0.080037 0.011467 -0.44009 0.18481 0.19671 0.15902
this 0.19223 0.28554 0.012629 -0.22884 0.94052 -0.36277 -4.3098 0.32853 -0.5995 -0.57731 0.21549 -0.043195 -0.07956 0.38541 0.094607 -0.5848 -0.28964 -0.046042 0.40985 0.34588 -0.0048096 -0.071439 -2.2594e-05 -0.067917 -0.18811 0.054618 -0.37226 0.58703 -0.24184 0.48544 -0.37553 0.32624 0.38935 0.013727 -0.39483 0.048044 0.54547 -0.07477 0.63441 -0.11595 0.21209 -0.20617 -0.29041 -0.23704 0.0041064 -0.099282 0.11893 -0.0052992 -0.11422 -0.090578 0.26124 0.83377 -0.11109 -0.32852 0.50166 -0.27973 0.2668 0.32922 0.23889 0.35908 0.14506 -0.091163 -0.23354 -0.24835 -0.24759 0.15085 -0.17141 -0.027307 -0.068021 -0.48302 0.002203 0.26988 -0.23518 -0.51465 -0.15938 0.023432 -0.0087119 0.58002 -0.13408 0.19655 -0.22713 -0.94542 -0.57163 -0.38737 -0.015954 -0.3288 0.40041 -0.2934 -0.030269 0.010723 0.0076222 0.14407 0.17482 0.17781 0.057853 0.026689 -2.6229 0.0094032 -0.39522 0.40077 -0.13103 -0.2146 0.086043 -0.25722 -0.060464 -0.46972 0.59448 -0.035612 -0.10569 -0.21069 -0.43147 -0.05884 -0.44765 -0.24497 -0.40401 0.51194 0.64938 0.099985 -0.1744 0.03064 0.037559 0.23209 0.39574 -0.010696 0.055671 -0.25155 0.7897 -0.28996 0.24901 -0.058746 0.24207 0.13273 -0.16214 -0.14803 0.66051 -0.091246 -0.28693 0.072021 0.31262 0.27137 0.17579 0.22921 0.079973 -0.10998 -0.34781 -0.16894 0.19642 -0.13928 0.65164 -0.13523 -0.26213 -0.043558 -0.04451 0.068151 0.054906 0.19557 -0.040857 -0.16588 -0.48647 -0.17558 0.8936 0.22782 0.011271 -0.16246 0.10318 0.33445 -0.42085 0.18572 0.36851 0.060591 -0.074437 -0.49661 -0.06022 -0.50823 -0.0014295 0.18659 -0.41602 0.018366 -0.194 -0.39097 0.50068 0.62149 0.13417 -0.12072 -0.16534 -0.24194 0.066933 -0.2801 0.25045 0.016149 -0.31262 0.19346 -0.23842 -0.47896 0.014039 0.070351 0.30635 -0.049576 0.66179 -0.068762 0.10011 0.040609 0.060913 0.12566 0.078004 -0.24195 0.018287 0.22682 0.49361 -0.13654 -0.0082092 0.26979 -0.088347 -0.027315 -0.32371 0.15109 -0.16104 0.12131 -0.28483 -0.07217 -0.007507 -0.23997 0.04046 -0.13108 -3.1533 -0.09568 -0.21382 -0.49716 0.22424 -0.09894 0.31707 -0.30451 0.25346 -0.40179 -0.39673 -0.024259 -0.31565 0.36771 -0.47916 -0.3794 -0.01212 0.098915 -0.88366 0.26876 -0.064834 -0.5536 0.086207 0.53916 0.215 0.36043 -0.072196 -0.52434 0.3381 0.0085474 0.5733 0.19011 -0.1348 -0.11589 -0.45145 -0.40165 -0.070097 -0.31569 -0.42273 0.23431 0.3653 -0.28453 -0.17764 0.4577 -0.081625 -0.10191 -0.05665 0.41565 -0.13205 -0.12703 -0.27067 -0.0062007 0.40564 0.11124 0.22112 -0.18344 0.88097 -0.025645 -0.35957 0.088658 0.10021 -0.24741 0.013705 0.12519 -0.36404 -0.30042 0.10586 0.48186 0.032621 -0.18641 -0.1046 -0.30677 -0.30053 -0.25577 -0.20713 -0.021695
by -0.11576 -0.060881 -0.13401 -0.61435 -0.19755 0.23418 -3.3754 -0.10872 0.51646 -0.093283 -0.5613 -0.0047589 -0.087711 -0.11326 0.25305 -0.19487 -0.29363 -0.046856 0.035137 -0.38397 0.86538 0.2526 -0.43044 0.14032 0.49132 -0.64698 0.35571 -0.55175 -0.28646 0.052156 0.11763 0.29159 0.47173 0.53689 -0.086643 0.40597 0.18372 -0.2947 0.22224 0.14991 0.35313 -0.23908 0.21952 0.086945 1.0176 0.15116 0.44394 -0.1246 0.032683 0.33389 0.84767 -0.058082 -0.63929 0.40544 -0.05092 0.064839 0.66326 0.14102 0.79176 0.17524 -0.79128 0.40973 0.31938 -0.42051 0.20976 -0.099436 -0.32411 1.1264 0.022788 -0.13021 -0.27708 -0.34675 0.37322 8.2513e-05 -0.34685 0.29348 -0.41246 0.49528 -0.0082721 0.2139 -0.0071346 -0.67461 0.081274 -0.45273 0.26644 0.16101 0.27104 -0.027355 0.14235 -0.1481 -0.19494 -0.1142 0.097143 -0.53722 0.27265 0.055552 -2.6398 0.16212 0.061758 0.073232 -0.082945 -0.13218 -0.004479 0.045386 0.1343 -0.063149 0.39337 -0.33905 0.11608 -0.36452 -0.45162 -0.3803 -0.36012 0.19408 -0.2723 0.12668 -0.032778 -0.33368 -0.01381 0.17976 0.14901 -0.013945 0.25306 0.54544 0.12883 -0.038744 0.21085 -0.74882 -0.036983 0.071979 0.010691 0.40774 -0.45506 0.20632 0.36027 0.23158 0.13495 0.21388 -0.23418 1.255 -0.084244 -0.13883 0.25678 0.50506 0.28669 -0.71818 0.72921 -0.76376 0.59133 0.081399 0.12063 0.30905 0.0048632 0.31169 -0.19122 -0.26259 -0.13185 -0.4443 -0.18602 -0.31447 -0.25223 -0.61112 -0.48038 -0.40029 0.022261 0.25831 -0.54237 0.13942 0.39521 -0.427 0.24712 -0.35507 -0.083688 0.83888 0.10428 -0.79117 0.23247 0.41964 0.57898 0.61367 0.95577 0.2926 0.41231 0.49866 0.3484 -0.26918 0.40684 -0.034774 -0.18573 0.22353 -0.60127 0.29095 0.64748 -0.28715 -0.27767 -0.0063649 -0.29657 0.082825 0.099471 -0.61447 0.19617 -0.41491 -0.0064707 0.57817 0.64251 0.48815 -0.47913 -0.15456 0.17264 0.12085 0.3425 0.64866 0.42577 0.072899 -0.24166 -0.23809 -0.051431 -0.31039 0.0040692 0.085554 0.020662 0.88006 -0.25059 0.6087 -3.3837 -0.088669 -0.22091 0.3462 0.11247 -0.19294 0.54107 0.77504 0.72006 -0.40232 0.39522 0.36003 -0.10669 -0.43977 0.47688 -0.12302 -0.34512 -0.079225 0.039593 -0.30416 0.53311 0.19223 -0.083955 -0.1319 -0.43717 0.63672 -0.61731 -0.79478 -0.72633 -0.45848 -0.59327 0.16522 -0.15955 -0.66407 -0.32241 -0.27124 0.20436 0.53381 0.1069 0.42608 0.67841 -0.20343 0.56907 -0.65156 0.19499 -0.18209 -0.086904 0.3339 -0.24918 -0.31428 0.049823 0.67542 -0.45278 0.96267 0.11389 0.93658 0.28661 0.10661 -0.64447 -0.16164 -0.63739 -0.44493 0.40626 0.048489 0.081641 -0.21953 -0.038541 -0.34415 -0.43979 -0.48682 -0.1212 0.21494 0.40048 -0.16947 -0.11143 0.24369
as 0.083738 0.13401 -0.40647 -0.34961 0.076245 -0.37206 -4.2428 0.51606 -0.10843 -0.43918 0.32854 0.036214 0.22279 -0.11515 -0.39788 -0.13118 0.041976 -0.18657 -0.038682 0.2619 -0.053851 -0.058142 -0.11752 0.21596 0.00034465 -0.30334 0.20542 -0.79291 -0.055569 -0.42087 -0.17578 0.070841 -0.078889 0.20571 -0.16125 -0.2328 -0.020184 -0.41748 -0.16818 0.2613 -0.057943 0.25491 0.09971 0.027543 -0.2763 -0.23473 0.18937 -0.24454 0.11145 0.14868 -0.15835 0.39118 -0.16832 0.11416 -0.23981 -0.34266 -0.19927 -0.11019 -0.13105 -0.10673 0.16171 0.1794 -0.032838 0.11182 -0.33118 0.36772 0.052274 0.39795 0.40636 -0.36114 -0.16241 0.23524 -0.011393 -0.16557 -0.12472 -0.31843 0.31038 0.12507 -0.041243 -0.1009 0.050907 -0.75736 -0.13402 -0.21978 -0.037805 -0.14145 0.0063182 -0.41735 -0.3089 -0.13123 -0.15734 0.042107 -0.20571 -0.068264 0.15989 -0.27594 -2.8285 0.18839 0.40031 -0.16541 0.29822 0.19547 0.24141 0.019291 -0.20127 -0.013216 0.4745 -0.77923 0.20773 0.067567 0.059684 -0.1868 0.20074 0.22767 0.27641 -0.05075 0.50067 -0.23586 0.36964 0.43843 -0.31619 -0.11252 0.027157 -0.2662 -0.15991 -0.32766 -0.20267 -0.041489 -0.15645 0.29983 -0.55249 -0.18001 0.17618 -0.27698 -0.061686 0.4887 0.16129 0.16584 0.51597 0.48574 0.15822 0.00399 0.27248 0.12351 -0.34337 0.077888 0.23406 -0.15642 0.76834 0.1193 -0.15996 0.060886 -0.19174 -0.26334 -0.22006 0.24895 -0.14988 0.095828 -0.39346 0.5643 -0.051969 -0.12182 -0.15491 0.28138 -0.27487 -0.13067 -0.076746 -0.45648 0.053896 -0.42692 -0.17647 0.41378 0.068977 -0.082558 -0.4135 0.27197 0.11604 -0.3555 0.085805 -0.020704 0.17962 -0.42194 0.27998 -0.096181 -0.17654 -0.67729 0.18482 0.17758 0.021728 0.1479 -0.025958 -0.1156 0.2221 -0.049004 0.26477 -0.15906 -0.32491 0.18274 0.15774 -0.063048 0.066831 -0.090329 0.13323 0.11413 0.16953 0.74933 0.30391 0.32811 0.33735 -0.25578 0.1986 0.056704 -0.37101 0.088633 -0.25997 0.15164 0.24398 -0.13166 0.030027 0.30901 0.23006 -0.20501 -0.033027 0.052423 -2.9363 0.093052 -0.0034928 0.19138 0.18277 -0.11769 0.24013 0.13086 0.3235 -0.17784 0.069096 0.54455 0.23938 0.16176 0.057555 -0.32499 -0.01823 -0.0043434 -0.46167 0.15621 -0.26871 -0.0073916 -0.37631 -0.21573 0.062492 -0.10066 0.22084 -0.068335 -0.23032 -0.15227 -0.10597 -0.50172 0.085831 -0.056963 -0.20162 0.18025 0.44947 0.09709 0.099525 -0.11653 -0.093434 -0.098543 -0.5757 -0.30002 -0.13704 0.031036 0.31697 -0.02044 -0.29916 0.33833 0.024107 0.3765 -0.3335 0.17098 0.25353 -0.2348 0.78045 -0.39925 0.48075 0.083375 0.092099 -0.014545 0.1349 -0.16283 0.16684 -0.030533 0.092935 -0.18143 -0.27544 0.095794 0.23304 -0.021151 -0.26706 -0.19636 -0.11533 0.025416
be -0.24443 0.033343 0.062834 -0.32583 0.24149 0.26266 -4.5157 0.75212 0.27528 -0.45958 0.44274 -0.35414 0.19612 -0.28342 -0.13278 -0.32873 -0.27344 0.1412 0.25791 0.26344 -0.027439 0.12743 0.1039 0.14536 0.3735 -0.32346 -0.083492 -0.33843 -0.11877 0.27641 -0.80609 0.25627 -0.055239 -0.33258 -0.5291 -0.4624 0.04134 -0.036933 0.067825 -0.073149 -0.18451 0.31476 -0.046087 -0.27223 -0.10528 0.031633 0.23804 -0.22536 -0.27483 -0.30367 -0.31471 0.23113 -0.33369 -0.18226 -0.1805 -0.36702 -0.014862 0.037436 0.14579 -0.086716 -0.4723 -0.30506 0.16164 0.14889 0.32846 0.44988 -0.087554 -0.1351 0.13727 -0.2944 -0.36807 0.20075 -0.063106 -0.40912 0.25391 -0.37736 0.080617 0.11879 0.32146 -0.055617 -0.018306 -0.83969 -0.10928 -0.15014 0.057437 0.19178 -0.20125 -0.34775 0.30368 -0.61351 0.21111 -0.33204 -0.067415 0.18517 0.13535 -0.33186 -2.4131 -0.10198 0.049245 0.13444 0.072473 0.14761 0.05473 -0.10841 -0.11014 0.0085264 0.19784 -0.42979 -0.051437 -0.41932 -0.026351 -0.42486 -0.097093 0.42999 -0.45642 0.30967 -0.02739 -0.073164 -0.065393 0.16264 -0.32676 0.10767 -0.11586 -0.45708 0.25177 -0.1831 0.32551 -0.25645 -0.59167 0.33259 -0.43648 -0.0062448 -0.15694 -0.23234 0.46818 -0.072043 0.04737 0.29812 0.4513 0.24157 0.52776 -0.087081 0.062404 -0.34382 -0.13955 0.00066785 -0.012348 -0.15883 0.64781 0.28006 0.14746 0.14447 -0.11726 0.083732 0.40343 -0.18804 -0.095696 0.20283 0.065161 0.095179 0.25834 -0.26556 0.24215 0.03536 -0.18194 -0.055974 0.22415 -0.020344 0.40875 0.20495 -0.094598 0.11934 -0.19528 0.14796 -0.30255 0.37622 0.020274 0.050681 0.26945 -0.30426 0.12099 0.23229 0.16599 0.25462 -0.19218 -0.54306 0.017959 0.42464 0.12401 0.10699 -0.048932 0.13726 0.23823 0.14102 0.31969 0.028113 0.056762 0.13284 -0.034285 -0.43502 0.42517 -0.097195 0.099163 0.27939 -0.0094802 0.37927 -0.046438 0.13603 0.1769 -0.3031 0.060805 0.11745 0.08309 -0.0097373 0.044466 0.085535 -0.16213 -0.37773 -0.085697 -0.61878 0.11078 0.052214 -0.18767 0.066362 -3.1506 0.12396 -0.09883 -0.12778 0.23001 -0.3056 0.14074 0.50931 -0.078077 -0.15914 -0.063641 0.33941 -0.070088 0.024473 0.024691 0.016801 -0.42843 -0.072112 -0.47347 -0.046178 -0.212 -0.13498 -0.33709 0.47761 0.17218 0.13431 -0.27614 -0.18668 -0.31717 -0.31092 -0.081697 0.045739 0.36272 0.20204 0.044973 0.36262 0.10701 0.0034976 0.13509 -0.14225 0.058709 0.078868 -0.21111 -0.36164 0.093962 -0.47559 0.078281 -0.19824 -0.22839 0.38214 -0.24732 0.23101 0.057393 0.18175 0.33752 0.14596 0.48024 -0.40902 -0.028911 0.21437 -0.23969 0.078185 0.31957 0.42159 0.025216 -0.52554 -0.51488 -0.22735 -0.34635 -0.076397 0.17312 0.0132 0.23074 -0.26427 0.10076 -0.33214
from -0.3608 0.25337 -0.15906 -0.61926 0.37083 -0.44016 -3.6589 -0.44855 -0.7584 0.15862 -0.013602 0.0047844 -0.38754 -0.14042 0.11756 -0.78521 -0.5513 0.51828 0.23261 0.52469 -0.35775 0.18853 -0.18378 0.038335 -0.27936 -0.48169 -0.23016 0.10142 -0.43912 0.003859 -0.046247 0.32915 0.074654 0.066665 -0.38187 0.0055843 0.34158 -0.094911 0.54912 0.089777 0.15139 0.21897 0.059417 -0.30624 -0.35477 -0.092982 0.88716 -0.017944 -0.24761 0.45925 0.25479 -0.028294 -0.25193 0.25669 0.22062 0.46103 0.52064 0.036048 0.29292 0.2412 0.12627 -0.29121 -0.1784 -0.7485 -0.12818 0.10795 -0.35184 0.42102 0.22599 -0.16168 0.54137 0.02594 0.23684 -0.093291 -0.044069 0.07959 0.078418 0.70623 -0.61603 0.37231 0.092149 -1.0142 0.14205 -0.019278 0.55535 0.15778 0.27906 -0.50419 -0.18513 -0.066149 -0.26922 0.46182 0.13379 -0.33584 0.45305 -0.59521 -2.3857 0.092115 -0.27097 -0.078057 -0.22807 0.039128 0.50566 0.13348 -0.30097 -0.4999 0.80516 -0.18948 -0.18269 -0.33952 -0.24739 0.50616 -0.079964 -0.045037 -0.43965 0.5843 0.60866 0.47771 0.27507 -0.18816 -0.36761 -0.19092 0.15122 0.22579 0.32642 0.37201 0.24899 0.071401 0.44053 -0.075212 0.47179 -0.27223 -0.33065 0.34563 0.0335 -0.24523 -0.047911 -0.41469 0.38722 0.40968 -0.33529 -0.24348 -0.40286 -0.053694 0.057459 -0.58515 0.043352 -0.022242 0.31657 -0.28965 -0.47689 -0.32103 -0.098546 -0.00098575 0.19853 0.24968 -0.129 -0.24233 -0.010011 -0.32094 0.21401 -0.039761 -0.038632 0.031161 -0.74688 0.10579 -0.3156 0.23651 0.14847 0.4652 0.30194 0.066157 -0.45164 0.033321 -0.19195 0.87247 -0.28883 0.13689 -0.32561 -0.17087 0.21702 0.51644 0.62376 -0.26711 0.075024 -0.46726 0.44361 0.11348 0.13952 -0.05199 -0.016654 0.69506 0.097694 -0.25128 0.030739 -0.67554 0.84858 0.41108 0.48275 -0.5458 0.17218 0.18168 0.28612 -0.035454 0.5278 -0.28584 -0.27224 -0.076351 -0.1255 -0.76337 -0.75728 0.26512 -0.44571 -0.15225 -0.87568 0.33908 -0.23556 0.10124 0.23434 -0.23384 -0.30727 0.30944 0.28957 0.18612 -3.5968 0.41852 -0.41853 -0.38828 0.27342 -0.021631 0.27124 0.060064 0.081214 -0.2149 0.2554 0.45232 0.027942 0.36175 -0.42302 -0.59313 -0.44976 0.035761 -0.14348 -0.073288 0.1348 -0.60814 0.20909 -0.10149 -0.2771 0.46888 0.06378 -0.66814 0.21295 -0.022328 -0.1088 0.03783 -0.17343 -0.60465 -0.053489 -0.29051 0.45965 -0.033948 -0.6061 -0.44252 -0.0056941 -0.63371 -0.11502 0.034399 -0.015527 -0.10867 -0.41683 0.32305 -0.65352 0.21926 -0.53578 0.48275 0.66371 0.24682 -0.046183 -0.19272 0.936 -0.076267 0.25906 0.1003 -0.40648 -0.25017 -0.085354 -0.46794 0.24395 0.38883 0.24458 0.61058 0.092489 -0.32686 -0.37437 0.26927 0.0015457 0.12749 0.15424 -0.29048
or 0.23333 -0.30334 -0.44491 -0.030651 0.15669 0.16303 -4.3474 0.75635 -0.20263 -0.30256 0.95183 -0.41293 0.065988 -0.27925 -0.33301 0.028757 -0.48017 -0.087209 0.33913 0.16456 -0.15929 0.00096796 -0.19011 0.23887 0.34067 -0.13174 0.010151 -0.63385 -0.10604 -0.44913 -0.24254 0.38964 0.19535 0.017324 -0.52815 -0.20234 -0.38265 -0.10951 0.13698 0.091294 0.51514 -0.010162 -0.77778 -0.34788 0.22571 -0.037317 0.18892 0.12465 -0.39181 0.04366 -0.88477 -0.22905 -0.13844 0.21993 0.016505 -0.12035 -0.19845 0.0078922 -0.16016 -0.32639 -0.23057 -0.32575 -0.044911 0.090077 0.69077 0.18433 -0.1095 0.14209 -0.21122 0.402 -0.54458 0.0040516 0.25768 -0.55107 0.13931 -0.19071 0.75392 -0.056051 -0.4882 -0.43108 -0.075989 -0.58015 0.50855 -0.067534 -0.079069 0.6054 -0.082123 -0.35765 0.020208 -0.1943 -0.073582 -0.31765 -0.31829 -0.31037 0.17202 -0.6684 -2.7923 -0.29473 0.53335 -0.027449 0.37785 0.073288 0.2575 -0.23714 -0.27898 -0.57687 -0.11586 -0.10784 -0.038465 0.28263 0.2993 0.28863 0.015838 0.22688 0.27427 -0.32408 0.55569 -0.35578 -0.17217 -0.08473 -0.090626 -0.26975 0.24747 -0.29351 0.063356 -0.15497 -0.27664 -0.20259 0.14142 -0.21094 -0.07981 0.1198 0.029082 -0.50698 0.39551 0.3969 0.19105 -0.25293 0.41513 0.14778 0.4164 -0.19721 -0.35669 0.1216 0.18999 -0.1961 0.11872 -0.1971 -0.068737 0.41881 -0.0039926 0.26365 0.065175 0.032958 0.43811 -0.029835 0.064808 0.34377 -0.26359 -0.64936 -0.12517 -0.097353 -0.15696 -0.045035 0.29255 -0.2917 -0.037714 0.32806 -0.17532 0.21157 -0.052095 -0.69644 0.0048582 -0.17262 -0.29121 0.50897 0.090105 -0.25201 -0.058365 0.0007995 -0.17235 -0.33984 -0.4082 0.047729 -0.15011 -0.31763 0.56859 0.20901 0.32835 -0.26197 -0.12743 -0.70984 -0.35975 -0.090983 0.16987 -0.051318 0.064503 -0.045011 0.045659 -0.35975 0.47616 0.046036 0.13521 0.14816 0.66702 0.34879 -0.33746 0.099447 0.41184 0.1382 -0.20694 0.089884 -0.042441 0.30392 -0.15441 -0.019407 -0.0098997 -0.42583 -0.22586 0.10388 -0.010985 -0.11146 -0.1108 0.39639 -3.0695 0.11594 -0.31303 -0.039867 0.77852 0.028196 0.37112 0.24712 0.61726 -0.29622 0.26498 -0.34662 0.63711 -0.031687 0.265 0.25365 -0.40811 -0.024617 -0.50053 0.0054446 -0.11923 0.038361 0.036128 0.46237 -0.23471 -0.2724 -0.21962 -0.40655 0.056105 0.1482 -0.32886 -0.16543 0.26417 0.15598 0.17655 0.11728 0.2214 -0.51787 0.55101 0.13528 0.24065 0.050806 -0.80346 -0.39978 0.78592 0.019305 -0.10755 -0.14565 -0.97429 0.24105 -0.20158 -0.31849 0.72603 0.28856 0.17032 -0.41086 0.45323 -0.69593 0.10092 0.032555 -0.43575 -0.44142 0.19424 0.037185 0.48126 0.073867 -0.32913 -0.21113 -0.19821 0.16669 -0.4133 -0.038567 -0.48327 -0.27795 -0.57561 0.0037754
your 0.31261 -0.21024 -0.29676 0.042702 -0.010114 -0.057844 -4.7176 0.52637 -0.080199 -0.54652 0.1178 0.034668 0.56859 0.070415 -0.013684 -0.049383 0.20602 -0.048774 0.13903 -0.0083261 0.59811 -0.66396 0.51968 0.34399 0.32023 -0.038088 -0.40479 0.12584 -0.37941 0.088033 -0.13778 -0.38641 0.38903 0.087011 -0.60561 -0.011583 -0.47728 -0.048257 0.16981 0.0688 0.27455 0.329 -0.24583 -0.58621 0.31266 0.20783 -0.076881 -0.27678 -0.12335 0.034985 -0.40722 -0.18906 -0.12025 -0.18107 -0.14542 -0.39763 0.52631 -0.032881 -0.11622 0.366 0.32916 -0.15711 0.4359 -0.18791 0.10293 0.37885 0.10566 0.41985 -0.21594 0.17053 0.25471 0.14869 -0.31147 0.017682 -0.40557 0.18334 0.35329 0.28422 0.242 -0.29629 0.18201 0.37279 0.0092751 0.15414 0.061548 0.28045 0.28551 0.52367 -0.62517 0.28685 -0.055684 -0.23478 0.38537 0.20421 0.29641 -0.97008 -3.3654 0.14569 0.10346 0.16348 -0.22104 0.0024729 0.53853 -0.29348 0.31548 -0.38746 -0.09295 0.37507 -0.39609 0.65237 -0.2271 0.0096267 0.12096 0.16185 -0.29103 -0.036427 0.26854 0.0066481 0.147 0.10301 0.067595 0.50784 0.85075 -0.41826 0.10437 -0.30247 0.48374 0.12804 0.14979 0.023057 -0.45949 0.40341 -0.16666 -0.17451 -0.15311 0.21832 -0.061085 -0.44431 0.2014 0.74391 0.32078 -0.090061 0.21828 0.30385 -0.090927 0.33591 0.0748 0.26025 0.1338 0.40524 -0.079655 0.030027 -0.23808 0.051259 0.46219 -0.42744 -0.32717 0.0019992 0.21317 -0.45971 0.54836 -0.72805 -0.35423 0.070846 -0.16044 0.21714 -0.014182 0.65666 0.33731 0.61199 -0.048671 -0.24982 0.14262 -0.38119 -0.62809 -0.057667 -0.050192 -0.098998 0.42146 -0.62483 0.40276 -0.32698 -0.4163 -0.1472 -0.040688 0.14367 0.034306 0.11247 0.20657 -0.26007 -0.26165 0.61284 0.020487 0.36182 0.38786 -0.67315 0.56085 -0.60659 0.23087 0.20783 -0.1333 0.054301 0.15711 0.12136 -0.28206 -0.44234 -0.016646 -0.28055 0.22055 0.037573 -0.40878 -0.042462 -0.39882 0.11123 -0.010797 -0.53347 0.23137 -0.48838 0.060233 0.62129 -0.087397 0.18831 0.22389 -0.36838 -2.8423 0.24174 -0.61228 0.049391 0.17476 0.11116 0.27748 0.17254 -0.17327 -0.221 0.044976 0.46513 -0.14646 0.21235 0.12831 -0.30025 -0.10982 0.62058 -0.34619 -0.36377 0.16736 0.059037 0.18562 0.2399 -0.10129 -0.35642 -0.16397 -0.023128 -0.065384 -0.30848 0.13402 -0.32237 0.1387 0.10593 -0.315 -0.71061 0.26315 -0.43809 -0.09738 -0.31845 0.24855 0.10392 -0.15121 0.18325 0.36847 -0.196 -0.59934 -0.23117 -0.39354 0.38399 0.18331 0.23515 -0.26833 -0.15181 -0.39697 -0.46782 0.17166 -0.25644 -0.0060025 0.11057 -0.28445 0.30516 0.19531 -0.010664 0.0047459 0.21749 0.21622 -0.054256 -0.48055 -0.51295 -0.10783 0.27744 -0.51958 -0.65816 0.055198 -0.054966
not -0.022975 0.087888 -0.24248 -0.074691 0.02824 0.22998 -4.5327 0.5373 -0.12518 -0.66138 0.5543 -0.025419 0.11417 -0.40385 0.0096543 -0.12993 -0.21505 -0.25925 0.27813 -0.088498 0.13009 -0.046868 0.0175 0.36643 -0.032872 -0.17078 -0.26807 -0.42586 0.077653 -0.16455 -0.61921 0.38747 0.26015 0.061263 0.047129 -0.038165 -0.24367 -0.10208 -0.0034508 -0.24689 0.12643 0.3372 -0.24855 -0.36743 -0.3716 -0.18604 0.080705 -0.23213 -0.072726 -0.18074 -0.19617 0.36208 -0.16366 -0.075338 -0.13983 -0.19771 0.19334 -0.071111 0.025522 -0.28499 -0.20524 -0.024694 0.4811 0.35094 0.2066 0.24465 0.17684 -0.017886 0.18143 -0.30241 -0.14863 0.59889 0.18398 -0.2547 0.087463 0.049013 0.40128 0.012377 -0.070462 -0.0082256 -0.035944 -0.93798 -0.028969 -0.38238 0.10747 0.049412 -0.31354 0.079988 0.21313 -0.43885 -0.00043834 -0.095345 -0.39125 -0.22197 0.21453 -0.48737 -2.4297 0.00049418 -0.014589 0.10345 0.001671 -0.12891 -0.39036 0.028072 -0.12452 -0.074444 -0.1448 -0.46083 0.10534 -0.043802 -0.01803 -0.19281 0.16531 0.17165 -0.42197 0.26413 0.13552 -0.25139 -0.22362 0.16482 0.0097142 -0.11494 -0.2954 -0.49498 -0.0030258 -0.43472 0.24684 -0.22546 -0.23665 0.1818 -0.21166 0.075385 -0.050222 0.054014 0.29924 0.10939 0.07169 -0.00080371 0.31698 0.13234 -0.0037191 0.20379 0.055665 -0.15463 -0.089738 -0.38155 0.32239 -0.19318 0.35282 0.17466 0.13583 0.21398 -0.35555 -0.072571 0.21612 -0.020512 -0.19917 -0.15595 -0.20171 0.27178 -0.04454 0.045257 0.0069772 0.24403 -0.17175 -0.29447 -0.026081 0.16088 -0.06991 0.0074897 -0.0057539 0.047139 -0.17451 0.027532 -0.24753 0.34246 -0.12805 -0.017721 0.21361 -0.45261 -0.033065 0.40818 -0.069298 0.38216 -0.11722 -0.24958 0.30722 0.13412 0.1065 -0.10731 0.14777 -0.043093 0.34366 -0.3835 0.021919 0.20521 0.20981 -0.15049 0.13862 -0.48075 0.20828 -0.093714 -0.19328 0.099862 0.011598 0.13444 -0.23759 0.11978 0.64072 -0.18559 0.33348 -0.1271 0.057205 0.16565 0.19509 0.16045 -0.19247 -0.41287 0.20756 -0.4871 0.058513 -0.28274 0.27144 -0.090221 -2.8021 0.42813 -0.043703 -0.066752 0.42034 -0.57819 0.39013 0.35403 0.10481 -0.10272 -0.4424 0.22075 0.28764 0.011536 0.11338 -0.086407 -0.33341 -0.0080434 -0.55527 0.17718 0.067367 -0.053292 -0.24967 0.4453 0.2619 0.19196 0.031451 -0.15395 -0.46885 -0.31279 0.15835 0.18253 0.52589 0.10207 -0.012071 0.18503 -0.18862 -0.042214 0.010729 0.13445 0.16057 -0.0044919 -0.10031 -0.17062 0.091895 -0.070606 -0.0018928 -0.25824 -0.34253 0.18466 -0.22609 -0.21352 0.083211 0.3931 0.17779 -0.061825 0.59823 -0.57151 0.16319 0.12012 -0.21018 0.3028 0.18371 0.38627 0.11382 -0.65203 -0.24343 -0.12854 -0.24938 -0.10539 0.15774 -0.14012 -0.14056 -0.32277 0.023121 -0.047671
? -0.14121 -0.017644 -0.053906 0.18547 0.32813 0.25853 -3.6841 0.29509 -0.10907 -0.19381 0.34879 0.49638 0.029754 -0.16316 -0.11582 0.17541 -0.040991 -0.15804 -0.23627 -0.23671 0.60791 0.052726 0.20134 0.36793 -0.017873 -0.29108 -0.16878 -0.36803 0.034576 -0.10331 -0.76244 -0.23243 0.30502 0.021559 0.17063 0.27664 0.11868 0.30436 0.36146 0.11077 0.28446 0.060465 -0.30468 -0.30166 0.42092 0.3769 -0.23266 0.065802 -0.10154 -0.057862 -0.60856 -0.50153 -0.25408 0.074217 -0.050169 -0.089253 -0.30014 0.43015 -0.079979 0.28749 -0.36022 -0.29249 0.19655 0.12863 -0.18431 0.15142 -0.22274 0.016084 -0.092956 0.056871 -0.66919 -0.11443 -0.0349 -0.29622 -0.29631 -0.25269 0.18466 -0.033934 -0.030025 0.34552 -0.061724 -1.0792 0.14769 0.16512 0.059515 0.24288 -0.32374 0.21562 0.16084 0.24546 -0.19989 -0.46054 -0.16672 0.072352 0.2063 -0.20103 -1.575 0.21111 0.41198 0.072466 -0.31202 -0.020707 -0.16305 0.087488 -0.093688 -0.34923 0.15722 0.067373 0.17141 0.048528 0.029488 -0.12046 -0.45089 -0.068384 -0.42116 0.57712 0.66533 -0.20705 -0.1995 0.18621 0.12283 0.14543 0.57235 0.14028 -0.027022 -0.34132 -0.057322 -0.37498 0.23037 -0.19004 -0.13546 0.11257 0.077843 -0.082868 -0.20147 -0.22004 0.20421 -0.030515 -0.22265 1.286 0.19289 0.12506 0.089421 -0.15215 0.4401 -0.54683 0.42365 -0.12309 -0.05685 -0.057554 0.23556 -0.37845 0.1567 -0.087423 0.073533 0.55074 -0.80049 0.32284 -0.013829 -0.44745 0.038731 0.5255 -0.64759 0.11109 0.1113 -0.11338 -0.64746 0.0088486 0.29217 -0.00058711 0.15734 0.067871 0.38937 0.29979 -0.040126 -0.0040181 0.20028 0.1919 0.076903 -0.0035438 0.0098489 0.12234 0.50898 0.079627 0.04107 -0.36179 0.67714 -0.021156 0.50299 0.24937 0.2035 -0.19162 0.36278 -0.23042 -0.19935 -0.15497 0.16439 0.24458 0.084206 0.12571 0.070113 -0.11272 -0.16788 0.0078215 0.00566 0.060444 -0.35012 0.049426 0.42314 -0.44129 -0.34961 -0.57923 0.57321 -0.3252 -0.12064 -0.46253 -0.1019 0.33389 -0.06125 -0.088649 -0.27705 -0.37355 0.0092866 0.046818 -3.1756 -0.3256 -0.14326 -0.057667 0.1555 -0.48942 0.3677 0.16058 0.39891 0.41861 -0.16523 -0.14991 -0.24168 0.0034884 0.21357 -0.17619 0.049594 -0.07549 -0.079884 0.16994 0.21807 -0.17521 0.040896 -0.09288 0.3133 -0.0037139 -0.090419 0.20475 0.19014 0.37536 0.10146 -0.24581 0.35475 0.35775 -0.032118 0.4617 0.37642 -0.20649 0.0039421 -0.34967 -0.29271 -0.014682 0.27504 0.11418 0.42372 -0.12144 0.4693 -0.23085 -0.32991 0.5408 -0.368 -0.2018 0.18203 -0.013184 -0.12389 0.1591 0.52407 -0.66135 0.18938 0.028725 -0.11235 0.11115 0.39741 -0.1725 -0.022084 -0.17422 -0.10407 -0.32615 -0.66706 -0.0968 0.055846 -0.23621 -0.74458 -0.23646 -0.23316 -0.15154
an -0.37615 -0.082053 -0.11925 0.33139 0.29682 -0.28887 -4.2675 0.76432 -0.059402 -0.22301 0.33735 -0.0026459 -0.088958 0.044766 0.037808 -0.11568 0.55515 -0.29253 -0.25017 -0.013104 0.026619 -0.06514 -0.13485 -0.045793 -0.029846 -0.028273 0.17067 0.036767 0.36738 0.0085995 -0.076375 -0.07407 0.0012773 -0.1026 0.22656 -0.020299 0.20371 0.18552 0.95082 0.25146 0.041302 -0.037162 -0.25837 -0.4232 0.14476 -0.57299 0.25113 -0.068889 -0.46541 0.044283 -0.01219 0.28765 -0.53928 -0.063091 0.1692 -0.54804 -0.62724 -0.0063576 -0.084698 -0.24161 -0.51839 0.048565 -0.12388 0.0011198 -0.031448 0.085844 -0.2983 0.91325 0.20413 -0.45817 0.092594 0.43481 -0.16068 -0.4405 -0.13756 0.13992 -0.098088 -0.094291 -0.16374 0.085097 -0.16936 -0.79143 -0.10837 -0.55142 0.38042 0.7615 -0.0087752 -0.50127 -0.27712 -0.38264 0.14066 -0.071966 0.047279 0.23776 -0.19939 -0.075976 -3.0294 -0.42662 0.63023 -0.097842 0.11262 -0.074913 0.80355 0.3466 -0.12645 -0.00086231 0.16574 -0.018944 0.40197 -0.11956 0.10689 0.77262 -0.16158 0.19375 -0.057754 0.44719 1.035 0.15735 -0.029953 -0.30477 -0.35169 0.054846 0.066965 -0.058754 0.051987 0.2069 -0.09255 -0.24834 -0.33811 0.40255 0.18726 0.11833 -0.10303 -0.67256 0.10925 0.028388 0.090537 -0.71229 -0.11456 -0.074299 0.051775 -0.22399 0.31463 0.070707 -0.62912 0.47947 0.12448 -0.44225 0.30733 -0.39033 -0.13493 -0.33971 0.19106 0.017726 -0.47021 -0.3698 -0.33752 0.13795 -0.63495 -0.41316 0.34683 -0.20671 0.21398 0.34209 -0.0072016 0.37691 -0.51592 0.29615 0.71075 0.18725 0.32043 -0.38763 -0.088215 0.055732 -0.24894 -0.050267 -0.24747 -0.40823 0.14902 0.37025 0.14893 -0.054736 -0.06285 -0.62057 -0.38088 -0.42294 0.40457 -0.01936 0.29835 -0.041581 0.19937 0.24207 0.082594 0.02533 0.035518 -0.21467 -0.60993 -0.063458 -0.022798 -0.28807 -0.026221 0.23637 -0.50607 -0.059183 0.19736 0.66412 0.19838 0.64142 0.86246 -0.25376 0.32467 0.028398 0.012347 0.047766 -0.26982 0.10616 0.099502 -0.34045 -0.22818 0.15304 0.095155 -0.059605 -0.051382 -0.058475 -2.9143 -0.37434 -0.46972 -0.09383 0.44727 0.53638 0.05205 0.2388 0.47989 0.19215 0.37148 -0.12196 0.30225 -0.4711 -0.24451 -0.26463 -0.79583 -0.25122 -0.53731 -0.11137 -0.41855 0.27161 -0.38605 0.081659 -0.33123 -0.61412 0.36008 -0.0048015 -0.13639 -0.38389 0.26634 0.50336 0.034687 0.15239 -0.15347 -0.099722 0.4498 -0.1896 0.19359 -0.059866 0.54693 0.5042 -1.2555 0.42756 0.33692 0.089092 0.17438 -0.52992 -0.42547 0.11221 -0.14495 -0.458 -0.4471 -0.22115 0.06058 -0.18096 0.79146 -0.3158 -0.093306 0.12621 0.019559 -0.15608 0.28076 0.093806 -0.15977 -0.16022 -0.01704 -0.098949 -0.25632 -0.30913 -0.30251 -0.27987 0.18979 -0.6149 -0.23771 -0.58746
do 0.07975 -0.12616 -0.18694 -0.085818 0.071979 0.35472 -4.5385 0.1512 -0.10849 -0.8637 0.48397 0.57593 0.24617 -0.37798 -0.15163 0.094795 0.17258 -0.31213 -0.17294 -0.43126 0.51997 -0.44233 -0.065926 0.47331 -0.26563 -0.46225 -0.52848 -0.29436 0.12904 0.1067 -0.56521 -0.19777 0.39576 0.33 0.027446 0.11958 -0.33981 0.034856 -0.087737 -0.15237 0.26463 0.82298 -0.21296 -0.53292 -0.22129 0.12721 0.17919 0.22926 0.066571 0.022503 -0.21374 -0.11927 0.058523 -0.10312 0.12298 -0.044633 0.2964 -0.36943 -0.16879 0.046708 0.21274 -0.20607 0.24275 -0.22872 -0.12607 0.21466 -0.029251 0.19985 0.0078899 -0.73523 -0.29677 0.36686 0.52723 -0.15929 -0.11903 0.20487 0.71634 0.28745 -0.1947 0.20569 0.34826 -0.12203 -0.081972 -0.017721 -0.22943 -0.090305 0.19694 -0.058318 0.10524 0.0011892 0.052237 -0.171 -0.41677 -0.24004 -0.13733 -0.74704 -2.3687 0.13384 0.68054 0.021278 -0.27981 -0.13449 -0.073474 0.29819 -0.36272 -0.3028 -0.20856 -0.32746 -0.17974 0.22643 0.51536 -0.22697 -0.054831 0.13071 -0.13103 0.27085 0.053304 -0.60584 -0.041065 0.2565 0.032177 0.10911 0.19474 -0.50388 -0.092595 -0.66694 -0.34203 -0.01122 -0.26061 -0.25869 -0.20077 0.12589 0.018923 0.085377 0.02441 -0.072404 0.61036 0.077536 -0.17515 1.164 0.13687 0.25222 0.28297 -0.00094784 0.13566 -0.62332 0.14426 -0.019218 -0.1895 0.21823 0.41198 -0.049645 -0.0061038 -0.35866 0.19823 0.29714 -0.1877 0.042629 -0.39999 0.46991 0.34747 0.11378 -0.29501 0.06737 0.10717 -0.0064694 -0.21363 0.24157 0.0019622 0.063048 -0.42567 0.10655 -0.28768 -0.19753 0.16042 -0.34315 -0.30231 0.0049429 0.32492 -0.32162 0.28039 0.33583 -0.0074991 0.42091 0.069475 -0.19802 0.16428 -0.09998 0.52284 -0.19177 -0.029595 -0.24169 0.44917 -0.41309 -0.16615 -0.053642 0.31167 0.091818 -0.10848 0.0091814 0.41186 -0.26566 -0.49549 0.16585 -0.027272 0.29616 -0.073538 -0.35712 0.36571 -0.003533 0.39193 -0.65603 0.2304 -0.25406 0.061088 -0.12122 -0.081187 -0.12537 0.079053 -0.37594 0.1404 -0.32297 -0.34743 -0.029766 -2.4709 0.60375 0.24323 0.1869 0.48684 -0.23185 0.23227 -0.12749 0.28123 0.13946 -0.47072 0.33278 -0.11717 -0.20702 -0.14086 0.037267 0.12285 -0.1248 -0.58729 0.066389 -0.23991 0.1247 -0.28991 0.27198 0.052352 0.10941 -0.025997 -0.0817 -0.014975 0.16073 0.3439 -0.12563 0.39776 -0.21917 0.090096 0.30263 -0.44059 -0.61179 -0.05294 0.16563 0.029818 -0.20732 0.18856 -0.09852 0.18051 -0.20059 0.0054845 -0.031435 -0.25686 -0.06431 0.044632 -0.53808 0.70163 0.37938 0.14368 -0.16518 0.6 -0.30234 -0.13168 0.18485 -0.040652 0.38029 -0.20553 -0.042086 0.13435 -0.58035 -0.078478 -0.10876 -0.24275 -0.28601 0.15461 -0.090091 -0.14231 0.025281 0.012144 0.12968
if 0.15778 0.17928 -0.45811 -0.12817 0.367 0.18817 -4.5745 0.73647 0.17606 -0.8293 0.082064 -0.14266 0.21238 -0.26372 -0.059256 -0.098649 -0.066799 0.0058709 0.14219 -0.090354 0.61726 -0.1149 0.27898 0.14475 0.15891 0.014503 -0.58231 -0.22863 0.10339 0.036708 -0.10234 0.33618 0.12442 -0.070659 0.18562 -0.056603 -0.40389 0.22752 -0.13525 -0.019177 0.23289 0.24373 -0.27557 -0.43924 0.0037064 0.071893 -0.19521 0.054334 -0.092126 -0.23645 -0.71296 -0.090448 0.053271 -0.16162 0.087189 -0.3997 0.10009 0.09872 -0.054107 -0.21203 -0.08878 -0.29178 0.25796 -0.024072 0.32352 0.592 -0.0063522 -0.10335 -0.010414 -0.40029 -0.32266 0.19597 0.1754 -0.19232 0.12326 -0.043261 0.55438 0.084702 0.096764 0.2283 -0.24032 -0.46932 -0.34117 -0.21343 -0.0051651 -0.076411 0.37316 -0.16297 -0.097925 -0.11943 0.1162 -0.047874 0.095802 0.10444 0.1288 -0.53482 -2.1291 -0.43638 0.36087 -0.090553 -0.097267 0.38247 0.073738 -0.21834 -0.10903 -0.35948 0.12101 -0.30494 -0.10833 -0.075421 -0.014502 -0.30491 0.050281 0.13774 -0.43366 0.28412 0.3833 -0.1837 -0.17787 0.15898 0.1647 0.010859 0.45922 -0.0054494 0.11421 -0.5421 0.26035 -0.36285 -0.26626 0.1379 -0.34416 -0.068039 0.020337 -0.2692 0.045114 0.35743 0.15991 -0.13656 -0.0042438 0.60187 0.084172 0.077082 -0.00022256 0.31581 -0.076072 -0.2039 -0.08033 -0.29104 0.13884 0.18468 -0.091387 0.23108 0.2305 -0.37852 0.0197 -0.11975 -0.012833 -0.40594 -0.31687 -0.15725 0.24586 0.081924 -0.36412 0.0047159 -0.065885 -0.081247 0.088558 -0.11994 -0.076347 0.19129 -0.09786 -0.12606 -0.27859 -0.15532 -0.26655 0.35568 0.14988 -0.19752 0.15548 -0.30582 0.050795 0.16739 -0.077401 -0.12095 -0.30036 -0.37977 0.26749 0.04561 0.06319 -0.13937 0.27149 -0.042051 0.16926 -0.0047536 0.44051 0.040147 -0.00031072 -0.092387 -0.12048 -0.26319 0.33261 0.11558 -0.37372 0.24879 0.018395 -0.10111 -0.18678 -0.19466 0.54659 0.012355 -0.0024784 -0.1068 0.059242 -0.11907 0.22621 0.0038154 -0.14624 -0.34239 -0.083708 -0.091694 0.028818 -0.23722 -0.14259 -0.15486 -2.774 0.46125 -0.050807 0.014614 0.38499 -0.28367 0.27039 0.25241 0.037789 0.02938 -0.10747 -0.34381 0.13496 0.30239 -0.14771 0.04081 -0.097506 -0.098504 -0.56236 0.14446 -0.1429 -0.10477 -0.22514 0.28845 -0.0066098 0.032674 -0.28128 -0.062711 -0.21049 -0.3526 0.032206 -0.12731 0.3115 -0.17694 -0.3264 0.22211 0.0095503 -0.086038 0.31167 -0.030327 0.17027 0.21761 -0.052995 0.017098 0.34959 -0.067423 0.00042101 -0.40892 0.0095372 0.12715 -0.31108 -0.41372 0.2841 0.26813 0.15291 -0.2811 0.45612 -0.22551 0.068274 0.12123 -0.34041 0.1174 0.054095 -0.15898 -0.082996 -0.15765 -0.28737 -0.12076 -0.43416 -0.072066 -0.17266 -0.078882 -0.18743 -0.34502 0.21606 -0.32492
one 0.38661 0.33503 -0.25923 -0.19389 -0.037111 0.21012 -4.0948 0.68349 -0.26302 -0.59638 0.1813 0.079144 -0.041138 0.066787 0.080896 -0.32254 0.02484 -0.39531 -0.083636 0.15012 0.025905 0.092759 -0.038793 0.013024 0.19316 -0.31102 -0.23261 0.0020652 -0.043341 0.054018 -0.20965 0.13457 0.41153 -0.19048 -0.25679 0.27972 0.053061 0.1198 0.028717 -0.11901 -0.38947 0.14859 0.10693 -0.33436 -0.042022 -0.17806 -0.15046 0.046049 -0.1264 -0.012993 0.095412 -0.10148 0.14129 -0.05672 -0.17544 -0.26818 0.17867 -0.04127 -0.054786 0.30265 -0.17111 -0.39052 -0.16718 -0.11244 0.20775 0.20611 0.039416 0.43258 0.1239 0.044666 -0.1565 0.29221 -0.13896 -0.24783 -0.052132 -0.38586 0.030687 0.042145 -0.054255 -0.38163 0.039052 -0.69185 -0.054011 -0.43974 0.23531 0.050308 0.17866 -0.039331 0.13299 0.09817 0.54515 -0.14785 -0.51369 0.36604 0.032778 -0.23743 -2.4045 -0.083562 0.14596 0.021032 0.42571 0.004579 0.35728 0.10934 -0.14976 -0.14959 -0.045522 -0.54589 -0.12069 -0.35413 0.39104 0.053444 -0.15016 -0.057238 0.14274 0.36829 0.58214 0.075718 0.29382 0.025443 -0.28596 -0.06801 0.30107 -0.16346 0.28433 -0.34545 0.1104 -0.25297 -0.346 0.10499 -0.22623 -0.29496 -0.26717 -0.24176 -0.035564 -0.28514 -0.010603 -0.083392 0.1936 0.5003 0.082373 0.013663 0.30822 -0.41334 -0.062946 -0.074798 0.20758 -0.23117 0.26473 0.24536 -0.20434 0.086841 0.31261 0.19874 0.45263 -0.061789 0.19687 0.080677 -0.36068 -0.2132 -0.013175 -0.068721 -0.11256 -0.090195 0.21264 0.084865 -0.011631 -0.20499 0.47748 -0.007824 0.15141 -0.15597 0.030492 -0.14717 -0.053877 0.33308 0.22746 -0.10846 0.10242 -0.23134 0.55122 -0.27021 -0.50491 -0.16611 0.054447 -0.38747 -0.16917 -0.26288 0.34072 0.15816 0.021342 0.24365 -0.064808 -0.013225 -0.080673 0.27234 -0.040691 0.051642 0.3406 -0.4185 0.15953 0.0033054 0.020657 0.15014 0.016795 0.15447 0.10337 0.16252 0.42464 0.41333 0.53446 -0.10984 -0.24625 -0.0057467 -0.28805 0.45289 -0.20755 -0.055634 -0.16693 0.21821 -0.1196 0.2133 -0.11097 0.02268 -3.2949 -0.20975 -0.13595 0.021036 -0.032142 -0.093176 -0.0035149 0.082349 0.16037 0.016587 0.0064719 -0.095279 -0.16995 0.27171 -0.19096 0.075982 -0.24748 -0.084249 -0.54472 0.49283 -0.41769 -0.073976 -0.047554 0.17628 0.14963 0.22848 -0.17615 0.048707 -0.19977 0.20468 0.233 0.018942 0.0095007 -0.078567 -0.22707 -0.064862 0.10907 -0.24873 0.10945 0.22766 0.44774 0.078354 -0.28436 -0.13606 0.24832 -0.015504 0.02921 -0.2179 0.0068457 0.10025 0.096195 0.15418 0.24956 0.042091 0.11196 0.018735 0.91873 -0.12269 0.30091 0.29851 -0.019358 0.25207 0.20737 -0.11614 -0.077412 0.1561 -0.1029 -0.040781 -0.25644 -0.18034 -0.040999 0.001817 0.14093 -0.16219 0.004072 0.16782
has 0.08088 0.32472 0.12472 0.18509 0.49814 -0.27633 -3.6442 1.0011 0.22661 -0.70519 0.15222 0.2579 -0.14118 0.12891 0.035899 0.063916 0.12414 -0.74981 0.15571 0.17382 -0.19987 0.16281 -0.14618 -0.013615 0.23071 -0.22076 -0.13354 -0.031423 -0.011074 -0.14598 -0.25984 0.1533 0.011188 -0.17179 -0.21907 -0.062338 0.38973 -0.013623 0.57054 -0.099411 -0.087506 0.21743 -0.27097 0.13487 -0.3378 0.17058 0.11922 -0.075807 -0.16179 0.12304 -0.31258 0.071883 -0.089425 -0.15011 0.10085 -0.22311 0.14148 0.1623 -0.11788 0.30817 0.010084 -0.15283 0.19418 0.24692 0.082779 0.14487 0.52293 0.42364 -0.22506 -0.027358 -0.07531 0.25624 0.14157 0.16797 0.2918 -0.36838 0.27275 0.11361 -0.013847 0.24444 0.26903 -1.4601 -0.48477 -0.050163 -0.28637 -0.16638 -0.32441 -0.022759 -0.11988 -0.28012 0.37377 0.33266 -0.24793 0.38804 0.02224 -0.10163 -2.5861 -0.10025 -0.15646 -0.15203 0.47362 0.39092 0.31283 0.21991 0.018565 0.16333 0.016876 -0.01263 -0.065006 -0.42511 -0.16483 -0.15484 -0.15427 0.038961 -0.23932 0.36394 0.099208 0.34068 0.12046 -0.2358 0.09303 -0.029497 -0.32751 0.14631 0.10646 0.62899 0.42236 -0.48936 -0.3538 -0.022604 -0.07816 -0.41265 -0.010834 0.4947 0.29242 0.072654 -0.1182 0.16642 0.44718 -0.14537 0.24014 -0.21636 0.31716 -0.1918 0.27715 0.24081 0.35252 -0.069699 0.22358 -0.19302 0.064308 0.18261 0.16978 -0.42826 0.21406 -0.0034354 -0.21566 -0.099901 -0.11879 -0.30958 -0.005156 0.09272 0.1394 -0.1991 0.25924 0.14499 0.053384 -0.21749 0.5194 -0.7175 0.2523 -0.37367 0.03715 -0.010544 -0.33305 0.67005 -0.10857 -0.35534 0.072735 -0.31224 -0.21832 0.29886 0.11257 0.10462 0.020033 0.034594 -0.020411 0.017849 -0.20352 -0.26489 -0.014703 -0.26012 0.37093 -0.4952 -0.10737 0.40069 0.11043 -0.021286 -0.10395 -0.60789 0.17815 -0.15468 0.1451 -0.17683 0.029785 0.27802 0.47986 0.48614 0.27926 0.197 0.37478 0.23604 0.29431 -0.51656 0.18527 -0.077033 -0.076896 -0.3191 0.022414 -0.11603 -0.04326 -0.50397 0.36958 0.26977 -3.3555 -0.3882 -0.29946 -0.14327 -0.092878 -0.10247 -0.30529 0.10315 0.0092642 -0.436 0.024816 0.020149 0.22137 -0.044366 -0.106 -0.069541 -0.22695 -0.0045472 -0.44964 0.56811 0.33084 0.049203 0.20466 -0.096519 -0.41786 0.16416 -0.060601 -0.0098672 0.27062 0.077281 0.13842 0.015948 0.053316 -0.42773 -0.15991 0.42217 -0.013705 0.022363 -0.30855 0.28634 0.10122 -0.15696 -0.73148 -0.14759 -0.25266 -0.067707 0.30738 -0.50885 0.025304 0.046257 0.13741 0.11228 -0.54242 0.23538 0.52118 -0.053163 0.63153 0.0067895 -0.19032 -0.10637 0.18677 0.29917 -0.082271 -0.013422 0.058913 0.10853 0.12126 -0.10489 -0.11494 -0.34232 0.25024 -0.15758 0.29786 -0.32243 0.32773 0.11633
1 0.34117 -0.050817 -0.055454 -0.024687 0.64166 -0.0062934 -1.9033 0.72549 -0.15366 -0.59362 -0.35415 0.25298 -0.16735 0.17199 0.30475 -0.059101 -0.2129 -0.08096 0.0049482 0.17004 0.43291 0.37778 -0.065418 0.318 0.16062 -0.67096 0.043943 0.25841 -0.75704 0.015281 0.33827 0.10127 -0.043132 0.25044 0.38147 0.58406 -0.22614 -0.11918 -0.27686 0.10301 -0.24799 0.16165 -0.032239 -0.24168 0.34279 -0.3692 0.0038679 0.29768 -0.58453 0.12423 0.13781 0.37591 -0.63623 0.085192 -0.24481 -0.25271 -0.32145 0.23952 -0.17904 0.0029632 0.2633 -0.40825 -0.11782 0.15221 -0.1739 -0.23106 -0.086834 0.19753 0.036969 0.6212 0.28679 0.22658 -0.014945 0.16885 0.41343 -0.17062 -0.50241 0.21738 -0.50378 -0.15853 0.43695 -0.43473 0.51767 -0.30775 0.0099885 0.0013624 0.11872 -0.11478 0.078318 0.59181 -0.030709 -0.68803 0.085548 -0.15301 0.082249 0.87116 -2.5779 0.2413 0.22096 0.25636 -0.50349 -0.17569 0.72536 -0.3035 0.0032638 0.057384 -0.49005 0.7487 -0.22759 -0.0012622 -0.27163 0.51796 -0.16299 -0.25697 -0.19546 0.38403 0.62649 -0.053962 -0.034053 0.16049 -0.10285 -0.083497 0.19366 -0.06736 0.24115 -0.54322 -0.27619 0.20293 0.00441 -0.24099 0.17055 0.21802 0.063233 -0.15327 0.51302 -0.36031 -0.40041 0.095922 0.048997 0.80324 0.09362 0.19907 -0.57988 -0.26509 0.27546 -0.46521 0.42236 -0.30104 0.44913 -0.61563 0.3924 -0.37043 0.01964 0.48324 0.58018 -0.22505 -0.27048 -0.84981 0.44399 -0.57208 0.24324 0.018588 -0.15601 -0.47536 0.2621 -0.34136 0.014338 -0.49336 0.17901 -0.061295 -0.19494 -0.39439 0.11327 -0.25652 0.0703 -0.10721 0.064911 0.22198 -0.090991 0.048061 0.20329 0.069152 -0.50167 -0.22506 0.053885 0.33026 0.1514 -0.15153 0.062694 0.32481 -0.079143 0.19109 0.15495 -0.11263 -0.014921 0.10802 0.36969 0.10542 -0.20275 -0.44354 0.13652 -0.21484 0.42163 0.022221 0.10922 0.16793 0.33618 0.42208 -0.52068 -0.091764 -0.054473 -0.4043 -0.65068 -0.23731 -0.38394 -0.23816 0.032334 -0.26416 0.0014123 0.44739 -0.11853 -0.037304 -0.59689 0.32836 -4.3841 0.55704 0.28575 -0.10537 -0.45029 0.27135 -0.22996 0.36578 0.59286 0.0905 -0.054894 0.21608 0.523 0.064107 -0.28598 -0.075155 -0.34343 -0.26781 -0.48898 0.39086 -0.28642 -0.09532 0.57767 -0.1551 -0.028009 0.36053 -0.48986 -0.19977 -0.23087 0.12109 -0.49508 -0.058462 -0.18071 0.41746 -0.0067402 0.58334 -0.54139 -0.14158 -0.10262 0.10821 0.90731 0.21712 0.11647 0.24621 0.298 -0.093228 0.3077 0.10392 -0.0056409 -0.024136 -0.068635 0.84797 0.3939 -0.27397 0.44211 -0.0057116 0.38246 -0.19048 -0.11458 0.79824 -0.021903 -0.52166 0.24949 0.29857 0.02105 -0.16818 -0.10464 0.47975 -0.38824 0.66181 0.10622 -0.4279 0.055197 0.011225 0.32086 -0.37113
get -0.1961 0.071137 -0.1263 -0.26382 0.19078 0.27746 -4.2662 0.0061844 0.093023 -0.65369 0.086044 -0.010827 0.10116 -0.36382 0.02422 0.15974 -0.57466 0.15436 -0.16256 -0.3455 -0.17585 -0.23094 0.25677 0.028079 0.22229 0.034911 -0.12163 -0.16824 -0.2386 0.22346 -0.60026 -0.17963 0.61873 -0.18092 -0.33106 0.038544 -0.29177 -0.060318 0.060512 -0.15101 -0.21227 0.26436 -0.27277 -0.27661 0.54307 0.25119 0.03494 0.2661 -0.0224 -0.20423 -0.22466 -0.1957 -0.28608 -0.5543 0.19639 -0.062796 0.30257 -0.33515 -0.21818 0.1637 0.052194 -0.55995 0.18348 0.05516 0.16038 0.37065 -0.042755 -0.26981 0.15439 -0.36016 -0.0023812 -0.20965 -0.015867 -0.26026 0.064093 -0.024793 0.66642 0.37301 0.23394 0.088515 0.07392 3.1965e-05 -0.095111 0.29734 -0.13841 0.041821 0.04306 -0.067155 -0.071137 0.022864 0.11884 -0.20103 0.19361 0.45615 -0.096638 -0.62653 -2.1901 -0.23032 0.57189 0.51292 -0.34776 0.042202 0.29222 0.20276 -0.0072976 -0.17562 0.33101 -0.16285 -0.42275 -0.25718 -0.028997 0.050438 0.20882 -0.055512 -0.28334 -0.012605 0.061743 0.31412 -0.1506 -0.081677 -0.14299 -0.11313 0.25164 0.37452 0.1192 0.15449 0.0036223 -0.23966 0.00066386 0.092092 -0.21581 0.19261 0.066264 -0.16935 -0.23413 -0.27402 0.22805 -0.07664 0.12111 1.1525 0.25855 0.054991 -0.23745 0.069638 0.099743 -0.20336 -0.37908 0.035216 -0.3495 0.050244 0.028924 0.035019 0.20919 -0.17428 0.57972 -0.00087829 -0.12087 -0.26179 0.17077 -0.27039 0.23241 -0.10012 -0.22622 0.0037356 -0.31156 0.18698 0.1935 0.056834 0.26499 0.013431 -0.31056 0.11514 -0.20512 -0.25999 -0.35628 -0.029646 -0.25888 0.20658 -0.022961 -0.38883 -0.006697 0.096148 0.18954 -0.14191 -0.016644 -0.22945 0.028135 -0.10732 0.11743 0.0044552 -0.13098 -0.0976 0.1366 0.16521 -0.158 -0.56274 0.28572 -0.041098 -0.48398 -0.32966 0.093515 -0.17089 -0.44248 0.097078 -0.27465 0.17666 -0.28742 -0.27029 0.38791 -0.1881 0.14433 -0.1243 0.05991 -0.36962 0.051227 -0.30162 -0.14285 -0.011896 -0.03758 -0.51567 0.15088 -0.13578 -0.49827 -0.086451 -3.0579 0.29149 -0.046209 0.34338 0.038557 0.003426 -0.16965 0.29854 -0.019271 0.20602 0.45928 0.21028 -0.12213 0.075114 -0.20522 -0.062888 -0.28757 -0.023329 -0.30509 0.55559 -0.028926 -0.22242 -0.11928 0.087166 -0.065615 -0.088809 0.035074 -0.068206 0.25767 -0.33329 0.33171 -0.047984 0.41832 0.055166 -0.44351 -0.024162 0.14632 -0.3403 0.11135 -0.30917 -0.0022849 0.12217 -0.42745 0.24168 0.47483 0.086905 -0.19535 -0.11239 -0.1835 -0.015304 0.15897 -0.17961 0.1978 0.42562 0.54112 -0.10201 0.56583 -0.14882 0.30327 -0.042123 0.0036016 0.33831 -0.27357 0.16719 -0.06614 -0.40562 -0.081593 -0.31196 -0.1068 -0.095045 -0.27287 0.048883 0.25796 -0.28173 0.22459 -0.023248
2 -0.089705 0.099 0.13692 -0.076339 0.49253 -0.10571 -2.1742 0.49484 -0.20072 -0.59089 0.018533 0.024976 -0.090081 0.18599 0.067286 -0.27145 -0.37633 -0.26283 -0.073385 -0.13509 0.3678 0.11624 -0.13317 0.21617 0.06934 -0.37392 0.23338 0.14206 -0.62164 0.59417 -0.05975 -0.17762 -0.014117 0.14443 0.55189 0.33425 -0.44241 -0.27921 -0.26755 0.22801 -0.42253 0.16962 -0.097195 -0.23129 0.33451 -0.18235 0.13135 0.080276 -0.65483 0.016763 -0.2021 -0.018232 -0.27694 -0.073361 -0.035661 0.15156 -0.16131 0.095041 -0.22782 -0.17695 0.042105 -0.47183 -0.040265 0.25929 0.12705 -0.41125 -0.11144 0.1638 0.2285 0.47353 0.45438 -0.23629 0.19667 0.11197 0.42822 -0.41048 -0.11463 0.1758 -0.34672 0.10281 0.41724 -0.30947 0.46075 -0.3185 0.48938 0.21801 0.22608 0.13697 0.33847 0.28159 0.032662 -0.53499 -0.22107 -0.0038845 0.28446 0.86275 -2.4558 0.039157 0.1288 0.40109 -0.30848 -0.19245 0.59025 -0.0061689 0.22407 0.12644 -0.33166 0.56642 -0.24496 0.24793 -0.13853 0.56282 0.1806 -0.086204 -0.29861 0.21881 0.16175 -0.059878 0.21037 0.18348 -0.077325 -0.34733 0.33855 -0.063362 0.081518 -0.36974 -0.36209 0.07941 0.3118 -0.3725 -0.046068 0.0167 -0.022119 -0.28642 0.32323 -0.16972 -0.034803 -0.074793 0.39207 0.89939 0.21495 0.11691 -0.2399 -0.38448 0.24873 -0.61746 0.45761 -0.43906 0.32852 -0.3727 0.52666 -0.45116 -0.16653 0.39242 0.73987 -0.36298 -0.17419 -0.6061 0.35502 -0.47192 -0.20175 0.093298 0.14794 -0.69356 0.54294 -0.10502 0.07258 -0.22663 0.29112 0.018648 -0.12563 -0.29289 0.15553 -0.060636 0.11203 0.029655 -0.014001 0.19753 0.068731 0.11173 0.19481 -0.038706 -0.17319 -0.1785 0.13887 0.23389 -0.075105 -0.31724 0.042615 0.36874 -0.36355 -0.24725 0.08278 -0.14146 -0.25985 0.33443 0.21627 -0.016113 -0.13685 -0.26879 0.10293 -0.32584 0.4099 -0.11674 -0.096056 0.087452 0.41594 0.28004 -0.29395 -0.29909 -0.23791 -0.35065 -0.68281 -0.38734 -0.41457 -0.38184 -0.19407 -0.15951 0.38976 0.44288 0.0064858 -0.195 -0.42951 0.20253 -4.3182 0.41609 0.40281 -0.078151 -0.20932 0.035184 -0.085332 0.6284 0.46432 0.35241 -0.32394 0.28926 0.56759 0.18731 -0.1217 -0.15534 -0.049514 -0.41441 -0.22773 0.3538 -0.19397 0.17373 0.53573 0.099534 -0.045019 0.42548 -0.4321 -0.29457 -0.19423 0.33874 -0.39323 -0.12787 0.033466 0.10501 -0.092784 0.6576 -0.39062 -0.318 -0.19779 0.17494 0.89953 0.070644 -0.026122 0.30188 0.15871 0.025382 0.37629 0.24605 0.18258 -0.24891 -0.072991 0.62021 0.30384 0.099369 0.27098 -0.13548 0.73978 -0.20009 -0.14623 0.84349 -0.19541 -0.56778 0.079855 0.29621 0.14907 0.27154 -0.038251 0.4264 -0.45223 0.5351 0.073803 -0.37431 -0.00057839 0.25482 0.37888 -0.17766
were -0.24182 0.012371 -0.040109 -0.52967 -0.27678 -0.28345 -3.7469 -0.050167 0.40071 -0.40114 0.15958 0.35412 -0.43545 -0.5717 -0.24666 0.21173 -0.42857 -0.14182 0.29345 0.3028 -0.29645 0.2229 -0.2726 0.48055 0.13194 -0.29253 0.71202 -0.64776 -0.49089 0.13476 -0.58187 0.090961 -0.83423 0.04394 -0.3628 -0.64526 -0.011993 -0.27989 0.037307 -0.65841 -0.0017762 0.25946 0.23601 -0.54956 -0.17661 -0.060123 0.10917 -0.68934 -0.19646 0.33116 0.20259 -0.4115 -0.068583 -0.22104 -0.0689 0.37889 0.11093 -0.039779 -0.069485 -0.17478 -0.090227 0.22771 0.059748 0.30368 -0.31422 0.36098 -0.2261 -0.052306 0.51334 -0.10211 -0.42679 -0.51007 0.37231 0.46273 0.34636 -0.35966 0.19915 0.35799 0.38732 0.33648 0.48806 -1.5753 0.24027 -0.37438 -0.24737 0.19271 -0.037047 -0.21321 0.48564 -0.78394 0.33263 -0.38611 -0.32553 -0.22912 0.3517 -0.51851 -1.8504 0.14829 0.149 0.19769 -0.20443 -0.11857 0.078871 0.17543 -0.42219 0.38946 -0.04934 -0.90999 0.037851 -0.13368 -0.04817 -0.11549 -0.23154 0.49445 -0.26993 0.30988 -0.49154 -0.44587 0.37201 0.10599 0.029732 -0.013518 -0.57264 -0.48604 0.016205 0.09235 0.13716 -0.035768 -0.33417 0.33771 -0.017371 0.090194 -0.34766 -0.3653 0.26662 0.47871 0.077915 0.32314 0.33969 0.19402 0.45044 -0.027257 -0.14149 -0.14935 0.015235 -0.41863 -0.046173 -0.2181 0.70916 -0.27491 0.12748 -0.086362 -0.10207 -0.081213 0.077145 -0.070742 0.014415 0.031306 -0.28035 -0.085744 -0.32517 -0.11848 0.0031984 -0.1599 -0.3053 0.11485 0.3486 -0.33634 -0.12713 -0.010511 0.12647 0.35985 -0.36592 0.35426 -0.405 0.53304 -0.15325 0.061063 -0.27979 -0.23083 0.29647 0.027173 0.06997 -0.081611 -0.083744 -0.34719 -0.048778 -0.10613 0.40829 0.35627 0.41937 -0.17302 -0.011343 0.17588 -0.53871 0.17402 0.19599 0.35172 -0.11193 -0.50015 0.1038 -0.053728 0.66696 -0.17959 -0.24632 0.5672 -0.46921 -0.20311 0.60267 -0.25095 0.29758 0.23291 0.16033 -0.40758 0.63785 -0.017067 -0.55154 0.03354 -0.012556 0.014984 -0.06705 0.32547 0.33833 0.32684 -3.3337 0.34455 0.24635 0.29493 -0.047827 -0.59737 -0.076767 0.13509 0.29294 0.018524 0.16475 0.34707 -0.19985 -0.17564 0.2046 -0.1572 -0.60914 0.12381 0.28873 -0.0079276 0.22913 -0.25144 -0.15166 -0.10218 -0.39456 0.37244 0.28824 -0.14464 0.05363 -0.0093591 -0.048657 -0.060185 0.26775 -0.02081 0.63408 -0.080548 -0.31269 0.19829 0.10252 -0.00032108 0.51643 -0.26101 -0.014525 -0.25825 -0.16971 -0.14784 0.13518 0.041582 -0.4559 -0.14119 -0.18945 0.2088 0.29355 0.23579 0.22076 0.34393 0.62974 0.23972 0.58583 0.42674 0.18294 0.079635 0.28679 5.1191e-05 0.42334 -0.29871 -0.15138 -0.11321 -0.0030919 -0.40816 0.19152 0.057619 0.035729 -0.010101 -0.23068 -0.11634
first -0.13793 0.22248 -0.22816 -0.096271 -0.082038 -0.39867 -3.2796 1.1245 -0.11261 -0.34297 0.060255 0.23944 -0.10733 -0.25378 0.025562 -0.66843 0.36883 -0.26064 -0.2626 0.076908 0.035951 0.25599 -0.18315 -0.18162 0.10078 -0.09184 0.43206 -0.11313 -0.12199 0.13156 -0.37929 -0.11762 0.07299 0.011729 0.24224 0.35301 0.1052 -0.20047 0.049456 0.12249 -0.41877 0.092533 0.19152 0.079849 0.10244 -0.29962 0.013528 -0.089244 -0.52864 0.078425 0.33392 0.078319 0.018095 -0.0016384 -0.1611 0.058356 0.073066 0.39248 0.10166 0.37174 -0.069019 -0.26234 0.03722 -0.07034 0.1445 0.30848 -0.10813 0.15191 0.11411 0.041824 -0.5287 0.22952 -0.11013 0.37837 -0.0084344 -0.44737 0.30514 0.13916 -0.11358 -0.25161 0.070809 -0.75927 0.17555 -0.28062 0.49745 -0.10078 0.26716 -0.14942 0.021468 -0.162 0.30578 -0.28332 0.026313 0.031244 -0.27805 -0.084478 -2.2903 -0.052053 0.18133 0.27562 0.042307 -0.033173 0.12467 0.095028 0.04919 -0.16752 0.15275 0.035408 -0.045967 -0.23124 0.35348 0.097875 -0.36925 0.038879 -0.33793 0.44566 0.61487 0.041811 -0.069042 -0.1872 -0.24313 0.2683 -0.30217 -0.072564 0.11722 0.14194 0.17256 0.16939 -0.23714 0.53689 0.2139 -0.17628 -0.17375 -0.041944 0.083024 -0.11727 0.26091 0.22449 0.38946 0.46649 0.29328 0.16259 0.20975 -0.0015215 -0.41188 -0.24159 0.093258 0.097512 0.48484 0.13138 -0.1437 0.1658 0.36273 0.37793 0.19771 -0.084981 -0.077395 -0.14216 -0.35978 -0.09888 0.17821 -0.010388 0.045608 -0.27152 -0.28978 0.045192 0.066955 0.27271 0.10815 0.052218 0.05135 0.098208 0.12865 -0.38662 -0.042085 0.13472 -0.17565 -0.17795 0.03356 0.52653 0.24361 0.13424 -0.31353 -0.042764 -0.20121 -0.11103 -0.70419 -0.33513 -0.38489 0.49438 0.32171 0.1254 0.11771 -0.068021 0.0035516 0.18647 -0.0075175 -0.16285 0.094638 0.46407 -0.24317 -0.33699 -0.46772 0.57265 0.22641 0.4515 -0.17524 -0.034572 0.78343 0.075439 0.66882 0.20833 -0.54484 0.011656 0.063986 0.37235 0.025497 0.049131 -0.39741 0.29702 -0.37919 0.45649 -0.075918 -0.20588 -3.6061 0.085454 -0.22068 -0.018389 -0.23601 0.01795 -0.60942 -0.018937 0.31124 0.064101 -0.065505 0.16516 -0.56609 0.42392 -0.17863 0.28221 -0.16455 0.13794 -0.36305 0.63522 -0.023198 -0.4462 -0.0064082 0.093051 -0.044884 0.1886 0.31498 -0.096393 0.038762 -0.26593 0.40067 0.2765 0.14618 -0.13149 -0.43924 -0.075324 0.53603 0.08617 0.037129 0.12528 -0.026431 -0.20451 -0.06237 -0.42105 0.19298 0.096565 0.30269 -0.1631 0.036523 0.079569 0.13214 0.23316 0.42187 -0.0034214 0.16978 -0.040631 0.68368 -0.10192 -0.14203 0.21765 0.055418 0.17061 0.062978 0.14765 -0.36534 0.20265 -0.1129 -0.24626 0.017006 -0.15831 -0.19703 0.14058 0.56784 0.23991 -0.17084 -0.053437
